tree
version=v4
num_class=1
num_tree_per_iteration=1
label_index=0
max_feature_idx=99
objective=regression
feature_names=Column_0 Column_1 Column_2 Column_3 Column_4 Column_5 Column_6 Column_7 Column_8 Column_9 Column_10 Column_11 Column_12 Column_13 Column_14 Column_15 Column_16 Column_17 Column_18 Column_19 Column_20 Column_21 Column_22 Column_23 Column_24 Column_25 Column_26 Column_27 Column_28 Column_29 Column_30 Column_31 Column_32 Column_33 Column_34 Column_35 Column_36 Column_37 Column_38 Column_39 Column_40 Column_41 Column_42 Column_43 Column_44 Column_45 Column_46 Column_47 Column_48 Column_49 Column_50 Column_51 Column_52 Column_53 Column_54 Column_55 Column_56 Column_57 Column_58 Column_59 Column_60 Column_61 Column_62 Column_63 Column_64 Column_65 Column_66 Column_67 Column_68 Column_69 Column_70 Column_71 Column_72 Column_73 Column_74 Column_75 Column_76 Column_77 Column_78 Column_79 Column_80 Column_81 Column_82 Column_83 Column_84 Column_85 Column_86 Column_87 Column_88 Column_89 Column_90 Column_91 Column_92 Column_93 Column_94 Column_95 Column_96 Column_97 Column_98 Column_99
feature_infos=[1:31] [1.5625:8561.875] [0:4925.6240545121682] [-1496:8163] [9:14546] [19:205485] [-1560.6547619047608:1359.9761904761899] [1:31] [1.6875:15732.75] [0:8441.2387605433833] [-1496:11800] [9:38179] [19:251724] [-1967.6571428571426:2031.9999999999991] [86:89] [0:10] [0:25] [0:4] [0:5] [0:104] [0:12] [0:33] [0:27] [0:6] [0:22] none [0:784] [48:846] [1:31] [8:1272] [1:13] [0:1] [6.9900000000000002:799.99000000000001] [0:255] [0:255] [0:255] [-4.6626610137429187:5.7352904223003076] [-4.2159846909379679:4.260967712590122] [-4.9724324537108577:4.9293153066938471] [-4.0206507049774727:4.4477869833994363] [-3.915188791355702:3.4739347194733154] [-3.9163314144492243:3.9413568206045966] [-4.2497485470829499:3.328553284055924] [-3.7091522955002989:4.0000078342647498] [-3.8624408608626868:3.4636499892406594] [-3.1752162209637969:3.4434571475782216] [-3.1711969436408611:3.4212830405935715] [-3.9714441911918197:2.7381443074112131] [-3.7710718230332367:3.0851676515619459] [-3.7244287915686596:2.989189332376688] [-3.0787878742400157:2.8887300557459032] [-2.9508760896397961:3.3271734581874597] [-3.0523353593865399:2.9020519380909118] [-3.6553100190325205:2.9786674465267624] [-2.7441265966664465:2.8906155808835186] [-2.4559103007734837:2.3721173390995016] [-2.6998326089507758:2.5911446584434508] [-2.6778756778775583:2.6105648202948246] [-2.4216565358575872:2.6283897895484976] [-2.2599136704530336:2.4098961037278079] [-2.6688683592493012:2.1676044164926429] [-2.2449527882290035:2.3407014020471326] [-2.3860166018796392:2.1842742504323427] [-2.1063676282924018:2.3529914741676303] [-2.402039220011511:2.2312481461543894] [-2.2380342599898304:2.8992740895989204] [-1.9762917398900823:1.9405820436420478] [-2.075331544154059:2.1601162098115609] [-1.8973513607137031:1.9127890355242971] [-1.6538671626015533:2.3679259371015107] [-2.5963359519981735:2.0972647856383082] [-2.2049756146500146:1.6479918872675077] [-2.2880167129446933:1.9622847860981565] [-2.6341555637266691:1.758848526246374] [-1.6833929035015482:1.8348425395919332] [-2.2777270946041446:1.9547679241363678] [-1.8668360978877934:1.84473863314775] [-1.7706773527113739:1.8259856685161515] [-1.8402123288401957:1.9431865444074443] [-1.465397745542879:1.7652190755573027] [-2.1339733912520433:1.450486985640264] [-1.8252239494460936:1.9959226310596505] [-1.6494516929652905:1.5844697068506273] [-1.7624081485665908:1.6799736253866242] [-1.6235948885294738:2.1999571060733669] [-1.6905358773696979:1.5217692798301152] [-1.6251352309892086:2.153200753175823] [-1.6058129880825542:1.5402748438108214] [-1.5792895575021606:1.7260482682673617] [-1.3270055411909847:1.5671937925499944] [-1.719916764201175:1.5488025347032905] [-1.5117563603855613:2.1373244643050491] [-1.6903990384897591:1.4726119536939666] [-1.3351304689578998:1.5598774578435024] [-1.66195619164625:1.7968968464263757] [-1.411552417689288:1.6474277421203225] [-1.6291788059518708:1.7581709004437116] [-1.4217293745395121:1.3225159120120908] [-1.3179006083009464:1.2393812276707052] [-1.5478714708204098:1.3259741846340793]
tree_sizes=5267 5600 5631 5632 5610 5625 5642 5635 5633 5620 5656 5634 5637 5639 5646 5659 5662 5676 5670 5682 5650 5657 5680 5690 5672 5690 5691 5708 5706 5685 5716 5734 5742 5717 5753 5747 5736 5768 5757 5765 5763 5770 5789 5786 5775 5746 5816 5760 5773 5774 5814 5812 5814 5797 5820 5793 5818 5838 5812 5851 5814 5840 5834 5842 5838 5802 5840 5863 5840 5845 5863 5846 5860 5850 5848 5859 5866 5878 5849 5866 5874 5855 5852 5886 5873 5877 5883 5862 5848 5845 5872 5848 5887 5905 5871 5886 5884 5882 5888 5858 5889 5890 5892 5881 5866 5866 5862 5870 5874 5868 5885 5878 5881 5891 5862 5908 5861 5877 5902 5875 5867 5920 5908 5860 5862 5840 5856 5919 5894 5883 5851 5898 5843 5883 5908 5886 5882 5880 5901 5900 5872 5901 5875 5880 5900 5888 5869 5887 5898 5874 5870 5896 5831 5891 5889 5855 5921 5935 5852 5864 5860 5868 5908 5879 5905 5893 5913 5847 5896 5880 5872 5900 5851 5924 5914 5874 5919 5912 5868 5919 5907 5889 5854 5908 5862 5896 5878 5931 5846 5876 5882 5866 5862 5875 5885 5901 5930 5891 5905 5902 5862 5880 5909 5860 5881 5902 5882 5886 5920 5926 5906 5904 5937 5905 5914 5893 5931 5889 5900 5901 5911 5879 5917 5925 5925 5917 5914 5929 5909 5904 5933 5951 5897 5913 5903 5918 5950 5906 5917 5944 5908 5878 5920 5925 5913 5964 5950 5939 5942 5962 5940 5934 5925 5922 5932 5937 5896 5909 5929 5944 5951 5949 5957 5967 5907 5949 5930 5924 5942 5937 5959 5914 5939 5955 5946 5948 5932 5950 5950 5917 5951 5912 5941 5915 5933 5960 5982 5968 5957 5957 5965 5945 5938 5947 5911 5943 5948 5986 5958 5967 5930 5933 5923 5955 5923 5991 5975 5947 5956 5937 5974 5930 5923 5971 5952 5950 5972 5922 5950 5968 5940 5924 5969 5927 5938 5954 5991 5919 5944 5950 5953 5952 5967 5935 5957 5962 5941 5943 5957 5950 5948 5947 5944 5972 5941 5986 5951 5934 5949 5947 5915 5932 5969 5934 5987 5961 5997 5950 5960 5978 5965 5918 5966 5937 5949 5966 5955 5963 5952 5948 5965 5933 5956 5955 5972 5969 5966 6003 5960 5980 5950 5972 5933 5974 5925 5934 5975 5977 5979 5960 5983 5978 5946 5975 5982 5975 5988 5943 5956 5964 5935 5952 5943 5965 5957 5986 5962 5949 5987 5972 5965 6013 5962 5941 5951 5969 5941 5935 5945 5963 5944 5974 5960 5941 5968 5952 5972 5983 5962 5995 5970 5969 5972 5962 5961 5986 5990 5983 5974 5991 5962 5939 5981 5929 5954 5991 6017 5966 5996 5976 5979 5979 5951 5967 5971 5958 5998 5971 5968 5953 5947 5966 5944 5953 5937 5933 5951 5971 5976 6004 5964 5998 5949 5973 5956 5975 6016 5957 5960 5976 5963 5966 5971 6008

Tree=0
num_leaves=64
num_cat=0
split_feature=5 5 1 5 5 5 1 32 17 5 5 30 5 5 5 30 30 30 3 5 32 1 5 5 5 5 12 0 27 5 6 35 32 30 1 6 12 52 30 63 6 20 32 11 6 30 70 32 97 60 1 47 18 8 18 57 12 30 6 54 5 32 6
split_gain=4526.69 705.848 619.715 169.082 148.755 136.18 117.452 48.6901 40.9752 27.2663 24.7851 22.7205 22.2533 21.0223 17.9658 15.3419 14.1079 12.2887 12.104 11.8002 9.31971 8.90114 8.62179 7.87162 7.85207 7.32308 10.3276 7.07567 6.97899 6.87032 6.50251 6.49635 6.49272 6.37226 5.99793 5.80206 5.69799 5.23773 4.82999 4.77883 4.75356 4.67289 4.5974 4.59662 4.56895 4.4077 4.32648 4.21322 4.12954 4.07727 3.71813 3.68707 3.68564 3.68128 3.56819 3.3413 3.33393 3.28508 3.03333 2.94169 2.8764 2.84458 2.83703
threshold=2789.5000000000005 14664.000000000002 69.968750000000014 154.50000000000003 5810.0000000000009 36218.500000000007 174.06250000000003 99.995000000000019 1.0000000180025095e-35 9980.0000000000018 22342.000000000004 5.5000000000000009 1096.0000000000002 1628.5000000000002 86936.000000000015 5.5000000000000009 5.5000000000000009 5.5000000000000009 35.500000000000007 342.00000000000006 77.990000000000009 270.87500000000006 309.50000000000006 132.50000000000003 3700.0000000000005 568.50000000000011 1136.0000000000002 9.0000000000000018 534.50000000000011 45118.500000000007 -118.63690476190463 191.00000000000003 28.990000000000002 5.5000000000000009 255.7166666666667 -64.289002664002609 3106.5000000000005 -0.43260454101091744 4.5000000000000009 -0.52559000830095737 -118.63690476190463 5.5000000000000009 14.490000000000002 184.50000000000003 -142.92474192474182 3.5000000000000004 -0.13260733154833135 47.990000000000009 0.092555406130218884 0.12634756550343099 85.916666666666671 -0.11014025344680382 1.0000000180025095e-35 332.47916666666669 4.5000000000000009 0.21057200488834435 2069.5000000000005 3.5000000000000004 -68.008333333333283 -0.088129032027546281 7840.5000000000009 28.990000000000002 -44.815476190476133
decision_type=2 2 2 2 2 2 2 2 2 2 2 2 2 2 2 2 2 2 2 2 2 2 2 2 2 2 2 2 2 2 2 2 2 2 2 2 2 2 2 2 2 2 2 2 2 2 2 2 2 2 2 2 2 2 2 2 2 2 2 2 2 2 2
left_child=2 4 3 23 11 10 12 8 18 17 44 21 25 31 29 42 34 -6 45 57 24 59 -9 27 -13 46 39 28 -1 -7 -11 53 -21 43 56 -36 37 -18 58 -27 -12 -28 -14 -34 -3 -5 -4 -39 -17 -43 -41 -45 -26 -8 -54 61 -15 -10 -23 -2 -19 -44 -33
right_child=1 5 6 7 9 14 13 22 19 30 40 20 15 16 -16 48 36 60 -20 32 -22 38 -24 -25 52 26 41 -29 -30 -31 -32 62 33 -35 35 -37 -38 47 -40 50 -42 49 55 51 -46 -47 -48 -49 -50 -51 -52 -53 54 -55 -56 -57 -58 -59 -60 -61 -62 -63 -64
leaf_value=9.4513052813078264 9.5958398814387742 9.6521398624990251 9.5183834475074089 9.4757022898356649 9.6203203609305348 9.6909596409103909 9.580756405250451 9.450298482677157 9.5084209105540189 9.6386508635833561 9.6680173507462541 9.6108941814045075 9.5822638167751926 9.5835474494124462 9.7459773857686791 9.5964968943962052 9.616076227635709 9.6308268838744837 9.5258553341323005 9.5538617628966218 9.5889802541572173 9.589361674515219 9.4950885669953227 9.4790935328099994 9.6338105553490028 9.5457226885166957 9.5291551679983364 9.4722786490414421 9.4148452715512843 9.7084964726416239 9.6488822400673904 9.545505115756777 9.5379649847765897 9.5613883716311108 9.5768539321742505 9.5946268388682103 9.5795425164384191 9.6022763098132824 9.6091681386424117 9.551874127630068 9.6791011913415286 9.538219649149358 9.574652253652113 9.5368609770813073 9.6608897642183766 9.500805791499543 9.5451133011585547 9.582336949180025 9.5718636484460138 9.5660044177773162 9.5645915145674749 9.5124254115662215 9.6159253483000384 9.5601198146803288 9.6261741320016831 9.553943034907876 9.5674888090738914 9.5265861143499198 9.6050660852816332 9.5704554225001601 9.6374016398161313 9.560777438347003 9.5662768549729105
leaf_weight=35 21 250 24 36 223 103 128 21 32 291 196 200 26 58 24 46 51 359 30 65 27 62 22 25 66 68 53 20 21 122 333 25 179 23 71 130 32 109 261 84 191 31 51 26 370 34 41 35 27 23 182 38 175 26 165 122 73 112 61 25 310 134 48
leaf_count=35 21 250 24 36 223 103 128 21 32 291 196 200 26 58 24 46 51 359 30 65 27 62 22 25 66 68 53 20 21 122 333 25 179 23 71 130 32 109 261 84 191 31 51 26 370 34 41 35 27 23 182 38 175 26 165 122 73 112 61 25 310 134 48
internal_value=9.60723 9.64101 9.55364 9.51473 9.62604 9.67175 9.57012 9.52454 9.52837 9.63609 9.66356 9.6117 9.55791 9.58428 9.70485 9.56663 9.58949 9.63049 9.49928 9.5345 9.61772 9.60283 9.47321 9.45476 9.619 9.55091 9.55322 9.44675 9.43763 9.70047 9.64411 9.57145 9.5397 9.53623 9.58292 9.58835 9.5991 9.60231 9.60532 9.55755 9.67349 9.5397 9.56208 9.53385 9.65736 9.4879 9.53524 9.59743 9.58739 9.55005 9.56058 9.52235 9.623 9.57727 9.6209 9.56037 9.5746 9.52255 9.59715 9.58204 9.63387 9.5646 9.55916
internal_weight=6252 3835 2417 719 2579 1256 1698 618 575 1516 1007 1063 912 786 249 406 559 892 100 475 633 430 43 101 606 506 441 76 56 225 624 227 331 266 332 201 227 195 384 334 387 107 333 243 620 70 65 144 73 54 266 64 406 154 340 307 131 144 123 46 669 185 73
internal_count=6252 3835 2417 719 2579 1256 1698 618 575 1516 1007 1063 912 786 249 406 559 892 100 475 633 430 43 101 606 506 441 76 56 225 624 227 331 266 332 201 227 195 384 334 387 107 333 243 620 70 65 144 73 54 266 64 406 154 340 307 131 144 123 46 669 185 73
is_linear=0
shrinkage=1


Tree=1
num_leaves=64
num_cat=0
split_feature=29 5 29 5 29 5 5 5 29 5 29 32 5 29 32 29 5 21 32 0 5 26 29 2 3 30 32 10 27 32 5 5 5 6 5 18 3 32 2 18 5 2 93 3 39 29 0 5 37 70 2 47 18 18 92 5 32 43 29 29 5 30 47
split_gain=4335.34 636.404 516.76 179.659 164.008 122.894 51.1147 48.3209 44.941 30.6265 25.3216 24.4633 22.4301 22.1787 20.409 18.1444 16.4789 14.4727 10.1987 10.055 9.54278 9.26876 8.81213 8.55045 7.64517 6.20084 6.17378 5.79058 5.6957 5.4942 5.34569 5.21426 4.78931 4.53847 4.43906 3.82166 3.67726 3.63458 3.39456 3.3415 3.32087 3.22218 3.21392 3.17452 3.10443 3.01493 2.97846 2.97706 2.93767 2.89513 2.7528 2.67841 2.66509 2.58823 2.49378 2.40105 2.34983 2.60569 2.29936 2.27195 2.24829 2.2129 2.17447
threshold=261.50000000000006 14664.000000000002 53.500000000000007 1096.0000000000002 555.50000000000011 36218.500000000007 132.50000000000003 3340.5000000000005 92.500000000000014 5112.0000000000009 178.50000000000003 144.99000000000004 24330.500000000004 765.50000000000011 14.490000000000002 150.50000000000003 59066.000000000007 30.500000000000004 94.990000000000009 15.500000000000002 9833.5000000000018 514.50000000000011 420.50000000000006 120.51719725439445 123.50000000000001 5.5000000000000009 52.990000000000009 21.000000000000004 366.50000000000006 42.990000000000009 5810.0000000000009 86936.000000000015 323.50000000000006 -142.92474192474182 2442.0000000000005 1.5000000000000002 804.00000000000011 47.990000000000009 1153.3470983526322 1.5000000000000002 19806.500000000004 59.372760418850625 -0.095002027853668833 7.5000000000000009 1.6669437303012034 1080.5000000000002 7.0000000000000009 1659.5000000000002 -2.3707658546525479 -0.80261693259430622 60.742026029040311 -0.28059609614839054 3.5000000000000004 4.5000000000000009 0.045356158882744642 45118.500000000007 57.990000000000009 0.78820930807996581 178.50000000000003 449.50000000000006 20216.000000000004 7.5000000000000009 -0.11014025344680382
decision_type=2 2 2 2 2 2 2 2 2 2 2 2 2 2 2 2 2 2 2 2 2 2 2 2 2 2 2 2 2 2 2 2 2 2 2 2 2 2 2 2 2 2 2 2 2 2 2 2 2 2 2 2 2 2 2 2 2 2 2 2 2 2 2
left_child=2 4 6 8 9 12 21 10 18 22 24 17 33 30 -9 25 55 43 19 32 39 28 29 35 34 26 46 54 -1 52 -6 -18 -4 60 44 -12 45 58 -14 -11 61 -34 -29 -8 49 -15 -10 -25 -26 -5 -28 -45 -2 -54 -19 -7 57 -32 -17 -41 -3 -35 -43
right_child=1 5 3 7 13 16 11 14 15 20 23 -13 38 36 -16 37 31 27 -20 -21 -22 -23 -24 47 48 -27 50 42 -30 -31 56 -33 41 40 -36 -37 -38 -39 -40 59 -42 62 -44 51 -46 -47 -48 -49 -50 -51 -52 -53 53 -55 -56 -57 -58 -59 -60 -61 -62 -63 -64
leaf_value=-0.15570575759328645 0.0035031582257397534 0.04053634845927441 -0.08094589301518032 -0.061810415928010592 0.01718205816633293 0.079629827587349905 -0.10074027578035992 0.039245604310670625 -0.043979897519404239 0.016443155614581782 -0.0049354630368761724 -0.15049352600024299 0.069894190462763447 0.032126404820412929 -0.012387047165988438 -0.041264104563742882 0.10345049330166407 -0.11365003841263908 -0.10373279617892371 -0.097825754740658938 0.028688823685203632 -0.17914652079343796 0.0071501447678356551 -0.045541759183192081 -0.016443152891006323 -0.041316261861192166 -0.062807401921600101 -0.11398322241646903 -0.12151412169138592 -0.012730910211325712 0.030514716668985788 0.13189669251441957 -0.063093058564769697 0.045099039519986804 -0.030487570031665457 -0.021537669269264773 0.041527010491039573 -0.047318007547408343 0.059048049304429008 0.0032219190518206695 0.058748795626727683 -0.065443299248300751 -0.086320649584134435 -0.066944392920973206 -0.06007762470593056 0.042946128160148478 -0.05816884387669892 -0.0291450512111062 -0.036485311767838445 -0.04455200909280483 -0.08033544626973925 -0.087185970355163928 -0.010728205342435739 0.00032548420238009561 -0.13748155935950901 0.091483343953955673 0.014894030400625381 0.021995784603059294 -0.024568364025567307 0.012412154886060981 0.049449311489732861 0.05396344268968864 -0.083623264965258154
leaf_weight=29 160 179 70 27 211 103 24 23 44 194 50 26 167 393 114 32 49 21 27 34 97 24 229 34 20 53 48 21 21 149 290 24 201 155 39 113 238 50 127 134 131 29 21 26 48 77 232 149 213 243 42 44 103 109 23 73 38 130 58 135 117 129 38
leaf_count=29 160 179 70 27 211 103 24 23 44 194 50 26 167 393 114 32 49 21 27 34 97 24 229 34 20 53 48 21 21 149 290 24 201 155 39 113 238 50 127 134 131 29 21 26 48 77 232 149 213 243 42 44 103 109 23 73 38 130 58 135 117 129 38
internal_value=8.8674e-05 0.0319724 -0.0542833 -0.0455045 0.0182463 0.061384 -0.117962 -0.031453 -0.0612427 0.00558139 -0.0355123 -0.105157 0.0535928 0.0302949 -0.00371879 -0.0520934 0.0928303 -0.098609 -0.0740609 -0.0719073 0.0144289 -0.153605 -0.00102473 -0.0247733 -0.0418102 -0.0573005 -0.0596151 -0.113431 -0.141345 -0.0046179 0.023767 0.112803 -0.0693002 0.0487895 -0.0464083 -0.016445 0.0364632 -0.0365094 0.065209 0.0114414 0.0521632 -0.0662584 -0.100152 -0.0850479 -0.0483608 0.033899 -0.0559068 -0.0321914 -0.034765 -0.0462778 -0.0709872 -0.0796677 -0.00136834 -0.00504494 -0.126107 0.0845463 0.0268006 0.0278779 -0.0305046 0.00783412 0.0440594 0.0491255 -0.0757543
internal_weight=6252 3941 2311 2031 2687 1254 280 1073 958 1310 936 206 1005 1377 137 559 249 180 399 372 560 74 750 346 590 419 366 86 50 521 669 73 338 711 357 163 708 140 294 463 415 268 42 94 318 470 276 183 233 270 90 70 372 212 44 176 458 420 90 269 296 284 67
internal_count=6252 3941 2311 2031 2687 1254 280 1073 958 1310 936 206 1005 1377 137 559 249 180 399 372 560 74 750 346 590 419 366 86 50 521 669 73 338 711 357 163 708 140 294 463 415 268 42 94 318 470 276 183 233 270 90 70 372 212 44 176 458 420 90 269 296 284 67
is_linear=0
shrinkage=0.05


Tree=2
num_leaves=64
num_cat=0
split_feature=5 5 1 5 5 5 1 32 17 5 5 30 5 5 5 30 30 30 1 5 32 1 50 37 5 70 63 13 6 32 35 30 1 12 4 5 24 78 52 27 6 5 6 11 61 6 32 97 32 47 77 84 74 46 32 69 91 12 24 12 12 27 84
split_gain=3689.47 574.556 506.714 137.94 121.546 110.909 95.5686 40.2401 33.4456 22.5964 20.2881 19.2227 17.7043 17.0522 14.8722 12.9103 11.8702 10.4702 10.4643 9.70134 8.02772 7.73423 7.01124 6.99701 6.46918 6.22355 7.34644 5.82103 5.69867 5.68385 5.59272 5.4776 4.97375 4.79558 4.78408 4.70587 4.54545 4.38931 4.36447 4.3359 4.26611 4.14305 4.04022 3.89556 3.85621 3.72725 3.68878 3.55125 3.52205 3.17975 3.13542 3.13147 3.03674 3.02654 3.04136 3.01955 2.9498 2.875 2.86275 2.71327 2.58919 2.54692 2.54258
threshold=2789.5000000000005 14664.000000000002 69.968750000000014 154.50000000000003 5810.0000000000009 36218.500000000007 174.06250000000003 99.995000000000019 1.0000000180025095e-35 9980.0000000000018 22342.000000000004 5.5000000000000009 1096.0000000000002 1628.5000000000002 59066.000000000007 5.5000000000000009 5.5000000000000009 5.5000000000000009 43.770833333333336 342.00000000000006 77.990000000000009 439.62500000000006 0.27521046147025802 -1.0933668983407143 3700.0000000000005 -0.36050723506254939 -0.52559000830095737 -2.1118881118881121 -118.63690476190463 28.990000000000002 191.00000000000003 5.5000000000000009 222.11250000000004 3106.5000000000005 46.500000000000007 86936.000000000015 15.500000000000002 0.1455341873449503 -0.43260454101091744 352.50000000000006 -60.673809523809467 2260.5000000000005 -108.03951048951049 184.50000000000003 1.0000000180025095e-35 -142.92474192474182 14.490000000000002 0.092555406130218884 47.990000000000009 -0.11014025344680382 -0.068712810558639856 -0.1453870351539657 0.33719530243520346 0.07173210878312565 37.990000000000009 0.17352924671883851 -0.44735657147420665 1136.0000000000002 19.500000000000004 2397.5000000000005 3767.0000000000005 632.50000000000011 -0.33004889201673798
decision_type=2 2 2 2 2 2 2 2 2 2 2 2 2 2 2 2 2 2 2 2 2 2 2 2 2 2 2 2 2 2 2 2 2 2 2 2 2 2 2 2 2 2 2 2 2 2 2 2 2 2 2 2 2 2 2 2 2 2 2 2 2 2 2
left_child=2 4 3 22 11 10 12 8 18 17 45 21 25 30 -7 41 32 -6 27 56 24 52 39 -9 60 37 53 -5 -11 -21 50 43 55 38 -29 -16 -34 -4 -18 -1 -38 46 -12 -31 -24 -3 -14 -17 -40 -45 -8 57 -2 54 -27 -15 -10 -28 -26 62 -13 -60 -48
right_child=1 5 6 7 9 14 13 23 19 28 42 20 15 16 35 47 33 -19 -20 29 -22 -23 44 -25 58 26 51 34 -30 31 -32 -33 36 -35 -36 -37 40 -39 48 -41 -42 -43 -44 49 -46 -47 59 -49 -50 -51 -52 -53 -54 -55 -56 -57 -58 -59 61 -61 -62 -63 -64
leaf_value=-0.13986937832832336 -0.0088864188675053316 0.040597659432888039 -0.06872506118246488 -0.1306177133321762 0.011672278862099912 0.080319027230143558 -0.035014847391919998 -0.099652773737907416 -0.094256749451160429 0.028347578385358365 0.055164622930953137 0.0081232504304110387 -0.022945946114866632 -0.039944631868274884 0.098277972425733301 -0.0091437686568773963 0.00839463624117129 0.024182457965476752 -0.07211101091113585 -0.047636740402533462 -0.017025723253135328 0.0014523077091534626 -0.1628723574095759 -0.1400900063307389 0.02772352881729603 -0.056420511396034906 -0.046760101253064457 -0.11709402600924175 0.037925698667451428 -0.062552034384544999 -0.043579200239316246 -0.040808159080536477 0.0030347105030986399 -0.025058640987845139 -0.08597799340883891 0.12530185580253603 -0.029612965060961113 -0.04779357662758766 -0.0041953629346825018 -0.11097194508269981 -0.015661417640782646 -0.018747265543788673 0.065410990721686588 -0.063451305031776428 -0.13433366090059282 0.048500605398738711 -0.051924810128716331 -0.031987192012645584 -0.022426003861640183 -0.086143567922868231 -0.020598181741396812 -0.040210852276009679 -0.025376507099717855 -0.050934551817110998 -0.082133651168450061 -0.017480418117096028 -0.073563832765625378 -0.066901811296966943 0.011089758384935183 -0.057481296872720127 -0.0034893914914573541 0.021571804377405593 -0.03955160407575517
leaf_weight=25 138 250 70 20 223 176 66 20 20 291 208 120 23 52 49 46 51 669 29 65 27 257 29 23 37 23 91 21 333 179 73 23 22 32 30 24 86 39 109 27 151 20 179 26 20 370 52 27 35 38 88 194 35 44 23 21 124 22 297 32 80 72 206
leaf_count=25 138 250 70 20 223 176 66 20 20 291 208 120 23 52 49 46 51 669 29 65 27 257 29 23 37 23 91 21 333 179 73 23 22 32 30 24 86 39 109 27 151 20 179 26 20 370 52 27 35 38 88 194 35 44 23 21 124 22 297 32 80 72 206
internal_value=8.42404e-05 0.0305771 -0.0482981 -0.0834798 0.0170712 0.0583093 -0.0334007 -0.0746263 -0.0711372 0.0261605 0.050921 0.00410845 -0.0444129 -0.0206233 0.0881888 -0.0366357 -0.0159302 0.0210549 -0.0974189 -0.0656043 0.00965015 -0.00404944 -0.137653 -0.121282 0.0108387 -0.0506531 -0.0477476 -0.107756 0.033459 -0.0608912 -0.0321802 -0.06413 -0.0219549 -0.00711874 -0.0987905 0.107163 -0.0187059 -0.0612358 -0.00417476 -0.124865 -0.020724 -0.0408103 0.0599039 -0.0663375 -0.151224 0.0453139 -0.0422201 -0.0175927 -0.00862642 -0.0769248 -0.0267768 -0.0440649 -0.0122226 -0.0603096 -0.0692771 -0.0334823 -0.0764378 -0.0506815 0.0144645 -0.0437487 0.00347819 0.013135 -0.0420454
internal_weight=6252 3835 2417 719 2579 1256 1698 618 575 1516 1007 1063 912 786 249 406 559 892 100 475 633 430 101 43 606 506 397 71 624 331 227 266 332 227 51 73 259 109 195 52 237 333 387 243 49 620 313 73 144 64 154 307 173 90 46 73 144 113 406 290 200 369 258
internal_count=6252 3835 2417 719 2579 1256 1698 618 575 1516 1007 1063 912 786 249 406 559 892 100 475 633 430 101 43 606 506 397 71 624 331 227 266 332 227 51 73 259 109 195 52 237 333 387 243 49 620 313 73 144 64 154 307 173 90 46 73 144 113 406 290 200 369 258
is_linear=0
shrinkage=0.05


Tree=3
num_leaves=64
num_cat=0
split_feature=5 5 1 5 5 5 5 32 17 5 5 30 30 5 5 30 1 3 36 32 44 50 30 5 32 3 1 5 5 30 27 30 18 44 6 30 99 18 32 18 59 44 90 6 6 91 37 17 18 30 37 30 44 12 32 27 83 46 3 6 12 27 6
split_gain=3329.74 518.783 458.418 134.115 115.552 93.3271 74.8797 37.4068 33.3271 22.3572 20.8905 18.9854 17.9268 16.7225 13.5552 13.3507 11.9019 9.9201 8.08752 7.42945 7.09083 6.34015 6.21168 6.13243 6.04167 6.00795 6.00135 5.76894 5.4809 5.02962 4.63973 4.21012 4.2037 4.16305 4.15389 4.01797 3.91703 3.88135 4.71187 3.9601 3.86751 3.72909 3.65694 3.56089 3.52904 3.51718 3.49875 3.95298 5.42478 3.49454 3.47256 3.40718 3.87427 3.32168 3.28356 3.02765 2.95708 2.93345 2.90563 2.79579 2.72802 2.72316 2.70603
threshold=2789.5000000000005 13313.500000000002 76.104166666666671 154.50000000000003 30840.500000000004 5053.0000000000009 1428.0000000000002 149.99500000000003 1.0000000180025095e-35 7758.0000000000009 53096.500000000007 5.5000000000000009 5.5000000000000009 20901.000000000004 398.00000000000006 5.5000000000000009 255.7166666666667 35.500000000000007 -0.99301210860901634 21.490000000000002 -0.34868248654285111 0.42316214788170248 5.5000000000000009 827.50000000000011 42.990000000000009 814.50000000000011 270.87500000000006 86936.000000000015 723.50000000000011 5.5000000000000009 618.50000000000011 7.5000000000000009 1.5000000000000002 0.40270437399502473 -70.113095238095141 3.5000000000000004 -0.14045972274728588 2.5000000000000004 42.990000000000009 1.0000000180025095e-35 -0.075484205794233164 -0.96007126311231061 -0.037440027668654029 -261.63727938727919 -109.47760572760559 0.209823360265359 -1.6774737800216235 2.5000000000000004 3.5000000000000004 3.5000000000000004 0.25539246758074535 4.5000000000000009 1.0386169216289765 1499.5000000000002 77.990000000000009 520.50000000000011 -0.26814507166773877 0.92147555534764158 99.500000000000014 -68.008333333333283 947.50000000000011 226.50000000000003 4.202380952380957
decision_type=2 2 2 2 2 2 2 2 2 2 2 2 2 2 2 2 2 2 2 2 2 2 2 2 2 2 2 2 2 2 2 2 2 2 2 2 2 2 2 2 2 2 2 2 2 2 2 2 2 2 2 2 2 2 2 2 2 2 2 2 2 2 2
left_child=2 5 3 21 13 15 12 8 17 22 43 16 18 31 35 26 46 49 32 -16 57 40 -7 -14 41 29 58 -12 45 -11 55 -3 -4 -24 -18 42 -23 39 -39 -21 -1 -13 -10 -6 -15 -20 -8 -48 -49 -5 -32 59 -53 61 -22 -30 -43 -17 -2 -28 -40 -25 -34
right_child=1 4 6 7 10 9 11 -9 14 25 27 24 23 44 19 20 34 -19 28 37 54 36 33 53 -26 -27 51 -29 30 -31 50 -33 62 -35 -36 -37 -38 38 60 -41 -42 56 -44 -45 -46 -47 47 48 -50 -51 -52 52 -54 -55 -56 -57 -58 -59 -60 -61 -62 -63 -64
leaf_value=-0.13083154366296881 -0.034026426002383231 0.037266636752102476 -0.023507759960868013 -0.11373273366027409 0.060678980280371275 0.0082335145833513246 -0.017935182332862603 -0.11874677373303309 -0.069127436280250559 0.014898362104696306 0.090779056287791635 0.01382172788338115 -0.043278637219389737 0.048736920214972453 -0.029720233373630507 0.019071470035760287 -0.026755661007976439 -0.068887557858420961 -0.055200905891565177 -0.058715367608744164 0.004074433946212575 -0.15939180695492289 0.021963687115804417 -0.028861900801873869 -0.020441586010433225 0.03320544492758689 -0.017823490870570571 0.11903676390647888 -0.046903748806138464 0.026830532790492207 -0.053545698026816052 0.04543014972316109 -0.043575135770320794 0.012452377680254654 -0.01168780595168859 -0.067965490467408129 -0.12913634032011032 -0.048995884173239274 -0.057866146782440932 -0.082837933798631039 -0.10461627145608265 -0.021191839408129454 -0.098076489319403978 0.074079021274066362 0.05830623766829296 -0.078330020267855044 -0.038950008723884821 -0.01626735227339576 -0.035354043611908685 -0.091702002700832161 -0.029704044573840557 0.0038588964671702588 -0.013605126762428347 -0.039637011502470287 -0.016397733276798613 -0.059725939600713679 -0.0040794845500279151 0.0027366706263273958 -0.0084575451689306649 -0.0022987877115595219 -0.076691301111821777 -0.011766339770066693 -0.024018296170979739
leaf_weight=34 25 438 41 36 68 205 43 36 20 110 73 24 44 206 26 128 66 31 65 46 291 23 322 36 88 305 58 24 171 448 21 247 153 179 149 170 20 150 67 27 24 31 24 183 181 22 150 63 91 36 56 171 39 21 21 63 136 35 20 58 27 66 20
leaf_count=34 25 438 41 36 68 205 43 36 20 110 73 24 44 206 26 128 66 31 65 46 291 23 322 36 88 305 58 24 171 448 21 247 153 179 149 170 20 150 67 27 24 31 24 183 181 22 150 63 91 36 56 171 39 21 21 63 136 35 20 58 27 66 20
internal_value=8.00283e-05 0.0290482 -0.0458832 -0.0769281 0.0530307 0.0149467 -0.0306098 -0.0691148 -0.0664076 0.0221643 0.0780643 -0.020264 -0.0417791 0.0449042 -0.061576 0.001561 -0.0255572 -0.0925356 -0.0457413 -0.055415 0.00711208 -0.13077 0.0155654 -0.0272589 -0.00960177 0.0275626 -0.00554618 0.0977707 -0.049956 0.0244783 -0.0468526 0.0402103 -0.0379027 0.0185654 -0.0163133 -0.071451 -0.145319 -0.0575224 -0.0544962 -0.0676374 -0.119984 -0.00460752 -0.0849178 0.0704487 0.0532125 -0.0610496 -0.0312847 -0.0331729 -0.0275459 -0.102717 -0.0362063 -0.0031835 0.000615578 -0.0215283 0.0026965 -0.0503559 -0.00725603 0.015564 -0.0226625 -0.0100611 -0.0632734 -0.0178001 -0.0413142
internal_weight=6252 3835 2417 797 1420 2415 1620 696 660 1569 348 841 779 1072 557 846 562 103 612 343 475 101 706 167 279 863 371 97 398 558 311 685 214 501 215 214 43 317 244 73 58 191 44 251 387 87 347 304 154 72 77 326 210 123 312 234 167 163 45 116 94 102 173
internal_count=6252 3835 2417 797 1420 2415 1620 696 660 1569 348 841 779 1072 557 846 562 103 612 343 475 101 706 167 279 863 371 97 398 558 311 685 214 501 215 214 43 317 244 73 58 191 44 251 387 87 347 304 154 72 77 326 210 123 312 234 167 163 45 116 94 102 173
is_linear=0
shrinkage=0.05


Tree=4
num_leaves=64
num_cat=0
split_feature=29 29 29 12 29 29 32 3 12 29 3 12 12 32 18 3 3 12 29 29 32 30 32 32 1 32 1 29 29 6 55 29 18 29 30 12 12 0 76 12 18 3 32 6 0 9 18 12 1 19 18 39 1 14 2 0 30 87 27 65 3 41 96
split_gain=3230.52 459.991 380.547 129.84 124.826 78.9169 40.6735 27.5008 26.7907 25.4088 21.5403 19.6606 16.6263 14.3065 13.4621 13.0589 10.1293 9.83794 8.92766 8.39781 7.48443 7.73754 6.99625 6.85303 6.24703 6.22129 5.94316 5.15949 5.08866 4.90802 4.32064 4.30937 5.18445 4.21072 4.08121 3.83648 3.79528 3.74691 3.42958 3.40724 3.38848 3.2332 3.01172 2.92944 2.90738 2.88172 2.8117 2.60676 2.58202 2.5674 2.50194 2.47766 2.3788 2.3651 2.245 2.19586 2.21541 2.18623 2.16768 2.12341 2.11053 1.98158 2.06984
threshold=256.50000000000006 765.50000000000011 53.500000000000007 36631.500000000007 138.50000000000003 468.50000000000006 11.490000000000002 10.000000000000002 18472.500000000004 98.500000000000014 148.00000000000003 62268.500000000007 12573.500000000002 69.995000000000019 1.5000000000000002 31.500000000000004 99.500000000000014 6098.5000000000009 214.50000000000003 28.500000000000004 94.990000000000009 3.5000000000000004 42.990000000000009 99.995000000000019 27.562500000000004 26.990000000000002 37.225000000000009 598.50000000000011 357.50000000000006 -185.50595238095218 0.26483674152635162 962.50000000000011 2.5000000000000004 207.50000000000003 5.5000000000000009 9386.0000000000018 18472.500000000004 22.500000000000004 -0.15646402781794144 26305.500000000004 4.5000000000000009 156.00000000000003 57.990000000000009 -352.76558441558427 4.5000000000000009 171.48020565772066 2.5000000000000004 40427.500000000007 69.968750000000014 62.500000000000007 4.5000000000000009 -2.3603199909713686 3629.4583333333335 88.500000000000014 88.390287250351818 17.500000000000004 5.5000000000000009 0.25924797005104327 688.50000000000011 -0.19875258662778253 794.50000000000011 0.082225216602253917 -0.22008764664225078
decision_type=2 2 2 2 2 2 2 2 2 2 2 2 2 2 2 2 2 2 2 2 2 2 2 2 2 2 2 2 2 2 2 2 2 2 2 2 2 2 2 2 2 2 2 2 2 2 2 2 2 2 2 2 2 2 2 2 2 2 2 2 2 2 2
left_child=2 5 7 8 6 14 -4 19 31 15 18 43 27 24 35 20 22 33 25 -1 21 26 55 38 49 57 -8 42 54 -10 59 32 53 46 -27 -2 51 -13 -21 -31 -30 44 60 -5 -17 -20 -12 -45 -24 -9 -34 -14 -39 -3 -16 56 -11 -6 -23 -26 -7 -46 -63
right_child=1 3 4 11 10 12 9 13 29 16 17 37 36 -15 28 41 -18 -19 45 23 -22 58 48 -25 30 34 -28 -29 40 39 -32 -33 50 -35 -36 -37 -38 52 -40 -41 -42 -43 -44 47 61 -47 -48 -49 -50 -51 -52 -53 -54 -55 -56 -57 -58 -59 -60 -61 -62 62 -64
leaf_value=-0.13815765166893984 0.0065180029542695646 0.043276868793699477 0.0098559084072433138 0.056085964096219923 -0.027760475526156372 0.012697302438975913 -0.1026602946899154 -0.084110906578245617 0.041160584992660593 -0.047142223346473389 -0.012390011231110869 0.082848387348408603 0.041139425661252893 -0.1210866703436925 0.00094343905387047158 -0.068134310390010028 -0.033971256525665759 0.018331691812879095 -0.011905738800734041 -0.1143933307598619 -0.097191335111856458 -0.064543888023030668 -0.066742869874216473 -0.13619222551584245 -0.076441776039807702 -0.040205378886148863 -0.066681994497776037 0.020806652660167999 -0.0051282190421754999 0.04653096669614315 -0.08898922182895519 0.037594793145862324 0.021676539970099815 -0.0098208841195803857 -0.027832982607785314 0.020349122316886983 0.036452207555489023 0.093096151947975159 -0.09224969016181099 0.055722015990308051 0.0054409538489341254 -0.037874552321291582 0.0021796870206711454 0.060028385854603954 -0.04847241247545428 -0.026564767362856092 -0.026750206723642936 0.072780056419195951 -0.052582597205551668 -0.10914222300052644 0.030446854500227018 0.023783181315124729 0.11567363023757936 0.026637544311649566 -0.010178905007396908 -0.029267008537831513 -0.030429764421238695 -0.010794983695571622 -0.053196907266974451 -0.056771003213875439 0.022147109662740787 -0.068528357821126137 -0.052019981890251601
leaf_weight=39 305 90 27 57 64 310 22 21 231 201 49 49 23 26 56 33 159 21 62 34 20 141 53 20 23 285 24 389 129 250 27 352 129 114 87 60 129 28 36 169 184 34 57 57 134 73 112 135 82 20 220 194 20 28 239 23 22 27 60 34 73 31 49
leaf_count=39 305 90 27 57 64 310 22 21 231 201 49 49 23 26 56 33 159 21 62 34 20 141 53 20 23 285 24 389 129 250 27 352 129 114 87 60 129 28 36 169 184 34 57 57 134 73 112 135 82 20 220 194 20 28 239 23 22 27 60 34 73 31 49
internal_value=7.60269e-05 0.0273914 -0.0472157 0.0459229 -0.0396048 0.0117328 -0.0507648 -0.101825 0.0394327 -0.0522691 -0.025686 0.0734785 0.020454 -0.0873411 0.00120104 -0.0598541 -0.0445718 -0.0146546 -0.0311464 -0.118778 -0.0677724 -0.0653903 -0.0489956 -0.11038 -0.0803221 -0.0344452 -0.083889 0.0166115 -0.00335581 0.0470121 -0.0725129 0.0334172 0.0302684 -0.0171735 -0.0373118 0.00879161 0.0296603 0.0925746 -0.103005 0.0502381 0.00108497 -0.0523304 0.0129026 0.0660395 -0.0543202 -0.0198325 -0.0223797 0.0689944 -0.0581418 -0.0963213 0.0272051 0.0256228 0.102503 0.0393286 -0.00806754 -0.0439764 -0.0454935 -0.0227268 -0.0611567 -0.0647083 0.0144984 -0.05219 -0.058417
internal_weight=6252 3963 2289 1815 2009 2148 1115 280 1469 1088 894 346 1175 151 973 548 540 296 598 129 267 247 381 90 125 463 46 829 608 650 84 819 467 275 372 365 346 97 70 419 313 281 440 249 247 135 161 192 135 41 349 217 48 118 295 246 223 91 201 57 383 214 80
internal_count=6252 3963 2289 1815 2009 2148 1115 280 1469 1088 894 346 1175 151 973 548 540 296 598 129 267 247 381 90 125 463 46 829 608 650 84 819 467 275 372 365 346 97 70 419 313 281 440 249 247 135 161 192 135 41 349 217 48 118 295 246 223 91 201 57 383 214 80
is_linear=0
shrinkage=0.05


Tree=5
num_leaves=64
num_cat=0
split_feature=29 5 29 29 29 5 5 5 32 21 5 29 18 5 5 32 5 29 18 29 18 9 30 29 3 29 29 29 27 32 32 29 37 26 32 32 30 5 12 32 18 26 1 5 9 5 4 66 5 22 29 30 29 13 8 27 30 29 71 78 48 13 9
split_gain=2930.65 380.533 364.083 102.793 99.1166 92.2535 64.1781 35.8043 23.0057 20.4542 18.9682 18.2763 17.0813 14.4146 12.4854 10.1591 9.68994 9.5571 8.82744 7.63911 6.95744 5.95245 5.7327 5.48229 5.37645 5.18233 4.68006 4.34711 4.18536 4.84299 4.1451 4.14259 3.91404 3.82864 3.73363 3.61452 3.65011 3.55867 3.48189 3.48065 4.98005 3.38944 3.22908 3.11722 3.11573 2.99715 2.92701 2.91298 2.73748 2.70928 2.55829 2.41133 2.38882 2.34806 2.18623 2.13451 2.85678 2.00531 1.99134 1.98735 1.92823 1.89998 1.86304
threshold=275.50000000000006 13313.500000000002 69.500000000000014 152.50000000000003 528.50000000000011 30840.500000000004 154.50000000000003 1073.0000000000002 11.490000000000002 30.500000000000004 59066.000000000007 821.50000000000011 1.5000000000000002 20901.000000000004 7386.0000000000009 67.990000000000009 2660.0000000000005 92.500000000000014 3.5000000000000004 22.500000000000004 1.5000000000000002 55.586360511842905 5.5000000000000009 50.500000000000007 52.000000000000007 214.50000000000003 460.50000000000006 50.500000000000007 667.50000000000011 42.990000000000009 24.490000000000002 1023.5000000000001 -2.2247834513242482 332.50000000000006 37.990000000000009 94.990000000000009 3.5000000000000004 45118.500000000007 2876.0000000000005 67.990000000000009 4.5000000000000009 157.50000000000003 85.916666666666671 642.50000000000011 177.47198209868677 2371.0000000000005 2085.5000000000005 -0.38488446298934914 86936.000000000015 23.500000000000004 199.50000000000003 10.500000000000002 364.50000000000006 -26.391192141192111 95.458333333333357 471.50000000000006 5.5000000000000009 131.50000000000003 0.35894537802174781 -0.026482669037534375 0.32313901841344356 -30.45833333333329 54.110975288222043
decision_type=2 2 2 2 2 2 2 2 2 2 2 2 2 2 2 2 2 2 2 2 2 2 2 2 2 2 2 2 2 2 2 2 2 2 2 2 2 2 2 2 2 2 2 2 2 2 2 2 2 2 2 2 2 2 2 2 2 2 2 2 2 2 2
left_child=2 4 6 7 14 13 19 17 -9 15 37 33 22 31 20 27 25 28 23 -1 52 42 50 -11 57 44 39 47 29 -4 -24 46 -26 -6 -29 36 -21 61 -27 40 -22 -20 -19 -23 60 -34 -3 -8 -12 -13 -5 -15 -2 -32 -36 -35 -57 -10 -45 -43 -14 -7 -31
right_child=1 5 3 12 11 10 9 8 24 18 48 49 16 51 -16 -17 -18 21 41 35 26 43 30 -25 32 38 -28 34 -30 62 53 -33 45 55 54 -37 -38 -39 -40 -41 -42 59 -44 58 -46 -47 -48 -49 -50 -51 -52 -53 -54 -55 -56 56 -58 -59 -60 -61 -62 -63 -64
leaf_value=-0.14497811094574306 0.0025359032119123379 0.041609009442494273 -0.055956696295955538 -0.023153650963489536 0.023476319066689698 0.056514593847444131 -0.085722127982548302 0.0097646867567352177 -0.049008162582123822 -0.086865765973925591 0.086236461938596243 0.028476505945824709 -0.026496529353446225 0.045231852384373612 0.015177732890552596 -0.091869937654199277 -0.014462132857316325 -0.046517657070459489 -0.11721695005893706 -0.11757226884365082 -0.0085256454460973779 -0.065215328189672211 0.019868693150452935 -0.054862575330164122 -0.014007739855263096 -0.016377323040971534 0.0064726771142525705 -0.045987934400401421 -0.047224704424540208 -0.066981998670334914 -0.019495029617100954 0.042003184361425465 -0.036600367120543729 0.0097049073342729934 -0.05567748156009298 -0.12766417288780213 -0.090814412117004403 0.074525812175124884 -0.037584480425963802 -0.015256219916045666 0.0026356941649552297 -0.10501034023861092 -0.035039764132557646 -0.045516003573864282 -0.043271984771958427 -0.022495583478852901 0.031752362450226002 -0.06308820928362284 0.10643395543098451 0.035849859761168258 -0.0094656373756466274 0.053371097907325298 0.011597216234723521 0.0010951473005115986 -0.076025904444130987 0.012572554744729382 0.021299507446374932 -0.035935010659423748 -0.06106544183246021 -0.086810751706361766 -0.035561229318681394 0.066738008057014853 -0.08303404088531223
leaf_weight=23 132 94 96 59 338 107 21 29 88 32 51 336 144 229 196 29 155 192 20 26 186 51 22 23 26 100 131 63 51 51 20 221 231 92 33 25 25 64 24 62 216 24 90 71 56 45 379 44 25 198 81 151 162 45 22 147 259 44 29 40 99 79 28
leaf_count=23 132 94 96 59 338 107 21 29 88 32 51 336 144 229 196 29 155 192 20 26 186 51 22 23 26 100 131 63 51 51 20 221 231 92 33 25 25 64 24 62 216 24 90 71 56 45 379 44 25 198 81 151 162 45 22 147 259 44 29 40 99 79 28
internal_value=-1.71686e-05 0.0269069 -0.0436824 -0.0342261 0.0150439 0.0477094 -0.0841763 -0.0440077 -0.0333518 -0.0741482 0.0710059 0.0239846 -0.0205925 0.040638 0.00375475 -0.0643747 -0.0251569 -0.0514944 -0.0890544 -0.119731 0.00123629 -0.0471443 -0.00897044 -0.0734826 -0.0362328 -0.0290758 -0.00187298 -0.0600176 -0.0598289 -0.0635022 0.00110911 0.0363517 -0.0325536 0.0193691 -0.054298 -0.11209 -0.104456 0.0643561 -0.0204819 -0.00422919 -0.00252851 -0.0992502 -0.0428545 -0.0551557 -0.0326398 -0.0343007 0.0337112 -0.0704007 0.0928804 0.0312104 -0.0152342 0.0484661 0.00752887 -0.00524029 -0.0638169 0.0165815 0.0181397 -0.0446504 -0.0500253 -0.0936356 -0.0301896 0.0608568 -0.0726713
internal_weight=6232 3855 2377 1927 2455 1400 450 1122 463 351 326 1370 805 1074 1085 212 578 659 139 99 889 433 227 55 434 423 595 183 226 175 87 694 302 836 118 76 51 250 124 464 402 84 282 151 299 276 473 65 76 534 140 380 294 65 55 498 406 132 100 64 243 186 79
internal_count=6232 3855 2377 1927 2455 1400 450 1122 463 351 326 1370 805 1074 1085 212 578 659 139 99 889 433 227 55 434 423 595 183 226 175 87 694 302 836 118 76 51 250 124 464 402 84 282 151 299 276 473 65 76 534 140 380 294 65 55 498 406 132 100 64 243 186 79
is_linear=0
shrinkage=0.05


Tree=6
num_leaves=64
num_cat=0
split_feature=5 5 1 5 5 5 1 5 5 5 17 32 30 0 30 30 5 32 32 5 32 18 32 30 26 42 81 30 30 2 5 5 12 5 27 11 36 32 18 16 44 5 3 8 85 36 94 83 0 42 5 44 5 0 12 3 3 91 0 48 18 32 84
split_gain=2465.27 368.194 346.887 112.444 83.2374 68.8509 51.1837 19.3923 16.2537 15.8049 15.4189 17.4036 12.663 12.3705 12.3504 11.748 8.1528 8.06713 7.45975 7.33052 6.2112 5.65899 5.43423 5.2647 5.10019 5.27812 4.95327 4.86995 4.49755 4.33057 4.32129 4.29081 4.16889 4.83323 4.10693 4.04951 3.97694 3.8625 3.77921 3.69683 3.54399 3.34201 3.30949 3.23288 3.15472 3.12528 2.9079 2.79791 2.71955 2.86558 2.64796 2.49728 2.43187 2.42951 2.39206 2.56684 2.39152 2.37383 2.33818 2.31367 2.3446 2.30543 2.25565
threshold=2789.5000000000005 13313.500000000002 80.387500000000017 240.00000000000003 36218.500000000007 5112.0000000000009 181.87500000000003 20901.000000000004 132.50000000000003 7758.0000000000009 1.0000000180025095e-35 149.99500000000003 5.5000000000000009 22.500000000000004 5.5000000000000009 5.5000000000000009 984.50000000000011 77.990000000000009 37.990000000000009 723.50000000000011 47.990000000000009 1.0000000180025095e-35 42.990000000000009 3.5000000000000004 514.50000000000011 -0.93360963667353869 -0.32657324264143078 5.5000000000000009 5.5000000000000009 753.12762284684425 361.50000000000006 929.50000000000011 2938.5000000000005 2134.5000000000005 611.50000000000011 189.50000000000003 -0.082604483504223933 77.990000000000009 4.5000000000000009 15.500000000000002 0.040503524567927336 3528.5000000000005 1379.5000000000002 189.18750000000003 -0.062277535084682305 -1.1802139918845542 0.46754472224433269 0.11624520115683103 11.000000000000002 0.65746218998950334 622.50000000000011 -0.7540290826150039 45118.500000000007 11.000000000000002 3767.0000000000005 210.00000000000003 192.50000000000003 0.19384406511063393 11.000000000000002 0.84515662940544156 1.0000000180025095e-35 21.490000000000002 0.33335459791709426
decision_type=2 2 2 2 2 2 2 2 2 2 2 2 2 2 2 2 2 2 2 2 2 2 2 2 2 2 2 2 2 2 2 2 2 2 2 2 2 2 2 2 2 2 2 2 2 2 2 2 2 2 2 2 2 2 2 2 2 2 2 2 2 2 2
left_child=2 5 3 8 7 14 15 29 24 27 26 18 16 52 41 19 -8 23 30 36 39 -16 45 -10 25 -1 -5 -7 -11 53 -12 -17 33 59 35 -20 -4 38 56 -14 -29 54 -9 -33 -22 48 47 -24 -21 -50 -28 -30 -6 -3 -2 -56 -23 -38 -44 60 -18 -32 -62
right_child=1 4 6 10 13 9 12 42 17 28 11 -13 20 -15 21 31 32 -19 34 22 44 37 46 -25 -26 -27 50 40 51 -31 61 43 -34 -35 -36 -37 57 -39 -40 -41 -42 -43 58 -45 -46 -47 -48 -49 49 -51 -52 -53 -54 -55 55 -57 -58 -59 -60 -61 62 -63 -64
leaf_value=-0.12961287647485734 -0.0064170904755209692 0.034602592689505066 -0.036095536419668714 -0.058694086447358129 0.060073462839831004 0.0069467617494063747 -0.052361392774619167 0.044228919299059019 -0.09571055094985402 0.016123258175913435 -0.057537732596667314 -0.094608998919526732 0.0041505793514564479 0.092249567608038596 0.019261568980463953 -0.033771179329293473 -0.0085378998250234869 -0.11528263262340002 -0.055800030202689505 -0.018047811354335863 -0.030076204763876426 -0.0049320533563796849 -0.046398644542528525 -0.07010358237490362 -0.13773986489876458 -0.096869669668376457 -0.092113832301563697 0.020777857125352097 0.030406672276654528 0.02970144840933028 -0.027286892727017405 -0.010949530999494505 -0.031749279723472655 -0.0097572966689421312 -0.046093254057592965 -0.070936437885640038 -0.050379333534139273 -0.016628253236413003 0.010960351002990809 -0.0094876293054537725 0.011981204785096405 -0.00095831975605192409 0.04770229408201182 -0.033021519244426777 -0.010367844169442024 -0.034725487768329302 -0.059373074575610786 -0.031178111534189579 -0.0403710301272662 -0.017285813763737678 -0.07039500150991522 0.023748190080197462 0.071967338238443646 0.042290240585803988 -0.030391352251172066 -0.0065656065568327898 0.0060138603200487403 -0.070946198701858518 0.058694326978051263 -0.031492651231130778 -0.024760424186003067 -0.043501797773132338 -0.0096133125076691313
leaf_weight=20 108 249 37 30 88 194 20 279 34 156 53 24 96 60 81 48 40 21 176 64 37 90 72 49 23 32 36 230 190 273 25 79 62 126 74 59 47 20 190 103 228 229 106 21 45 286 23 52 41 20 23 544 84 175 26 20 112 20 89 49 136 178 30
leaf_count=20 108 249 37 30 88 194 20 279 34 156 53 24 96 60 81 48 40 21 176 64 37 90 72 49 23 32 36 230 190 273 25 79 62 126 74 59 47 20 190 103 228 229 106 21 45 286 23 52 41 20 23 544 84 175 26 20 112 20 89 49 136 178 30
internal_value=-1.63102e-05 0.0249641 -0.0396057 -0.0651445 0.0453401 0.0131413 -0.0255216 0.0399192 -0.100393 0.0195005 -0.0558386 -0.0529076 -0.0160534 0.0727013 0.00194722 -0.0342183 -0.0211352 -0.0875978 -0.0511362 -0.0370654 -0.00768022 0.00718003 -0.0347939 -0.0805932 -0.118135 -0.109463 -0.075236 0.0135863 0.0238332 0.0346131 -0.0448242 -0.021483 -0.0197254 -0.0177687 -0.0563656 -0.0596002 -0.0492528 0.00480478 0.0058983 -0.00290839 0.0163987 -0.00478848 0.0477217 -0.0155846 -0.0192606 -0.031843 -0.0430445 -0.0400158 -0.0252479 -0.0328021 -0.0836472 0.0254718 0.0658821 0.0377756 -0.010484 -0.0200323 0.00113697 -0.0565187 0.0527192 -0.0217273 -0.0194045 -0.0415049 -0.022023
internal_weight=6232 3821 2411 857 1403 2418 1554 1171 179 1542 678 589 744 232 876 810 463 104 565 662 281 493 558 83 75 52 89 652 890 697 256 148 443 381 309 235 104 412 392 199 458 383 474 100 82 411 147 124 125 61 59 734 172 424 154 46 202 67 195 255 206 203 166
internal_count=6232 3821 2411 857 1403 2418 1554 1171 179 1542 678 589 744 232 876 810 463 104 565 662 281 493 558 83 75 52 89 652 890 697 256 148 443 381 309 235 104 412 392 199 458 383 474 100 82 411 147 124 125 61 59 734 172 424 154 46 202 67 195 255 206 203 166
is_linear=0
shrinkage=0.05


Tree=7
num_leaves=64
num_cat=0
split_feature=29 29 29 5 29 29 5 5 3 5 5 5 29 0 18 32 27 21 29 32 2 30 32 1 18 29 5 40 18 32 32 18 18 5 29 42 32 30 11 3 29 29 2 66 94 3 27 0 32 51 29 3 5 12 18 42 68 3 45 40 71 32 29
split_gain=2405.65 326.717 285.392 102.774 97.6226 58.1647 26.7887 24.6838 21.6643 18.6662 16.6515 14.501 13.2537 12.5277 10.5935 10.0808 8.77814 7.38942 6.44973 6.15367 5.91367 5.43885 5.38657 4.82802 4.3689 4.29524 4.07012 3.97526 3.81013 3.80971 3.78184 3.66865 3.57984 3.49056 3.41811 3.40244 3.05373 3.31787 3.04725 2.9586 3.03778 2.87109 3.00219 2.76061 2.75816 2.66338 2.60198 2.89219 2.5587 2.89976 2.98934 2.36207 2.35961 2.22212 2.21047 2.13797 2.12425 2.0829 2.04616 2.01729 1.96149 1.90208 1.89987
threshold=261.50000000000006 765.50000000000011 53.500000000000007 27850.500000000004 118.50000000000001 468.50000000000006 2371.0000000000005 154.50000000000003 62.500000000000007 59066.000000000007 16874.000000000004 13313.500000000002 185.50000000000003 22.500000000000004 1.5000000000000002 69.995000000000019 674.50000000000011 30.500000000000004 22.500000000000004 94.990000000000009 120.51719725439445 5.5000000000000009 14.490000000000002 30.56071428571429 1.5000000000000002 1017.5000000000001 38126.500000000007 1.2787253526101721 3.5000000000000004 84.990000000000009 47.990000000000009 4.5000000000000009 2.5000000000000004 9100.0000000000018 661.50000000000011 0.81325038574274189 94.990000000000009 3.5000000000000004 3065.5000000000005 94.000000000000014 83.500000000000014 373.50000000000006 196.65701535541783 -0.41574436332307346 0.24849955665767071 106.00000000000001 275.50000000000006 11.000000000000002 21.490000000000002 -0.34367650000437017 90.500000000000014 1556.0000000000002 86936.000000000015 622.50000000000011 4.5000000000000009 0.052652906465089473 -0.4787962633202158 71.000000000000014 1.4312127237648671 1.0007132685413354 -0.040911060759140576 24.490000000000002 364.50000000000006
decision_type=2 2 2 2 2 2 2 2 2 2 2 2 2 2 2 2 2 2 2 2 2 2 2 2 2 2 2 2 2 2 2 2 2 2 2 2 2 2 2 2 2 2 2 2 2 2 2 2 2 2 2 2 2 2 2 2 2 2 2 2 2 2 2
left_child=2 5 7 10 8 14 12 18 16 26 25 24 21 45 33 17 19 43 -1 23 -14 30 -10 -4 55 28 -5 60 -3 31 -6 57 -22 62 -26 -23 37 -20 -12 40 -24 42 -33 -9 -32 -8 -41 -48 -25 -50 53 -40 -11 -51 61 -7 -18 -16 -13 -45 -19 -30 -2
right_child=1 3 4 9 6 11 13 15 22 52 38 58 20 -15 29 -17 56 27 36 -21 32 35 39 48 34 -27 -28 -29 54 -31 44 41 -34 -35 -36 -37 -38 -39 51 46 -42 -43 -44 59 -46 -47 47 -49 49 50 -52 -53 -54 -55 -56 -57 -58 -59 -60 -61 -62 -63 -64
leaf_value=-0.13159913368847059 0.0020785599055950748 0.033663543968878946 -0.071161904647236776 0.051497991770011943 -0.032268955152540003 0.014848828014097551 -0.022361974828497305 -0.076820244301449181 -0.012752612138336356 0.077829159357968511 0.046363165354641689 0.027995789276306023 -0.01335292896147916 0.015670303617500599 -0.015176900392097813 -0.10539499620596569 -0.054153785375612121 -0.1036376785148274 -0.10730883429447811 -0.081283894057075187 -0.0098357222974300388 -0.027468637363107385 -0.056108822046141871 -0.040386412750397414 0.010049772643312471 0.033882835107020191 0.062969245888568739 -0.069225078410115742 0.02875194978855905 -0.022063173389492128 -0.037765339734749159 0.0025343600965593051 -0.03337341111508154 0.019871298376470805 0.017994639640906827 -0.0050449150303999582 -0.11550481176376344 -0.081281964063644407 0.034813577664180063 -0.044196525736091036 -0.039071674116123528 0.0064322506889945624 -0.010260090583679125 -0.064721323213269635 -0.052248278844424269 -0.012043248805192973 -0.037014700243299878 -0.021876264991746708 -0.046435736209342757 -0.056504103168845181 -0.051278333851665851 0.042811956621449571 0.096580910921096802 -0.070078457813513906 0.026779061922163769 0.023026975684633452 -0.038654020575895204 -0.004409620225389539 0.043045270729523438 -0.046027177599845114 -0.082754621427992114 0.016361751102534582 0.010017625925384518
leaf_weight=23 169 145 42 181 320 134 97 22 22 51 137 172 151 36 62 27 28 22 24 24 20 87 38 35 419 291 135 29 42 26 130 104 84 50 200 21 25 25 254 48 84 137 82 31 44 176 74 55 79 64 102 145 25 57 329 198 105 163 26 27 23 118 136
leaf_count=23 169 145 42 181 320 134 97 22 22 51 137 172 151 36 62 27 28 22 24 24 20 87 38 35 419 291 135 29 42 26 130 104 84 50 200 21 25 25 254 48 84 137 82 31 44 176 74 55 79 64 102 145 25 57 329 198 105 163 26 27 23 118 136
internal_value=-1.54947e-05 0.0237518 -0.0406192 0.0390165 -0.0340916 0.0101399 -0.0246751 -0.0881208 -0.0469033 0.0617495 0.0329171 0.0176617 -0.0292259 -0.0120537 0.000836733 -0.0772139 -0.0530553 -0.0722731 -0.108473 -0.0567312 -0.0196721 -0.0332728 -0.0366306 -0.0551764 0.0150987 0.0288537 0.0563987 -0.083661 0.0265454 -0.00336222 -0.0354949 -0.00247495 -0.0288469 0.00762602 0.0126168 -0.0231085 -0.101285 -0.0940298 0.0399294 -0.0383875 -0.0443783 0.000939518 -0.0031062 -0.0617393 -0.0414277 -0.0157096 -0.0342583 -0.0305603 -0.0531842 -0.0546674 -0.0575835 0.0377203 0.0839975 -0.0628986 0.0244347 0.0197262 -0.0419171 -0.0073766 0.029972 -0.0560189 -0.0929641 0.0196142 0.0056186
internal_weight=6232 3931 2301 1853 2023 2078 1166 278 857 392 1461 1149 857 309 929 181 536 154 97 403 255 602 321 379 951 925 316 74 634 574 494 548 104 355 619 108 74 49 536 299 122 323 186 80 174 273 177 129 337 302 223 399 76 121 489 332 133 225 198 58 45 160 305
internal_count=6232 3931 2301 1853 2023 2078 1166 278 857 392 1461 1149 857 309 929 181 536 154 97 403 255 602 321 379 951 925 316 74 634 574 494 548 104 355 619 108 74 49 536 299 122 323 186 80 174 273 177 129 337 302 223 399 76 121 489 332 133 225 198 58 45 160 305
is_linear=0
shrinkage=0.05


Tree=8
num_leaves=64
num_cat=0
split_feature=29 29 29 12 29 29 29 32 12 1 6 16 28 18 18 12 29 1 29 32 6 16 18 6 18 29 30 6 39 12 18 12 6 29 29 28 42 18 29 53 27 6 4 29 12 18 32 32 84 2 18 29 32 1 11 32 32 94 29 23 39 53 12
split_gain=2172.1 274.355 269.653 83.2829 80.026 43.3661 40.4094 26.7062 18.713 16.6148 15.6956 15.0112 14.593 13.7372 9.50341 8.58195 7.44478 7.14992 6.96347 6.33783 5.7595 5.30669 4.63124 4.43066 4.4287 4.40316 4.19157 3.81132 3.63894 3.50674 3.41259 3.39078 3.33493 3.21316 3.21055 3.13641 3.09037 2.92247 2.86228 2.93133 2.92548 2.8564 2.76022 2.55339 2.52397 2.44437 2.43717 2.34895 2.29826 2.25334 2.12347 2.10108 2.05256 2.03907 2.772 2.02094 2.00861 1.96915 1.91695 1.94126 1.90931 1.89311 1.88664
threshold=281.50000000000006 69.500000000000014 765.50000000000011 37628.000000000007 152.50000000000003 495.50000000000006 38.500000000000007 11.490000000000002 18198.000000000004 80.387500000000017 -4.1776811594202874 7.5000000000000009 22.500000000000004 1.5000000000000002 1.5000000000000002 17940.500000000004 214.50000000000003 22.687500000000004 50.500000000000007 52.990000000000009 -12.517669172932331 6.5000000000000009 1.5000000000000002 -121.01889776889767 3.5000000000000004 1017.5000000000001 5.5000000000000009 -5.6984848484848589 1.6669437303012034 539.50000000000011 1.0000000180025095e-35 9386.0000000000018 -15.261904761904733 104.50000000000001 373.50000000000006 17.500000000000004 -0.18993751819344698 3.5000000000000004 108.50000000000001 0.077484969457046068 471.50000000000006 -311.21393606393593 46.500000000000007 675.50000000000011 28339.000000000004 4.5000000000000009 42.990000000000009 67.990000000000009 0.16273383550107515 168.55718710593388 4.5000000000000009 199.50000000000003 67.990000000000009 282.14583333333343 642.00000000000011 24.490000000000002 57.990000000000009 0.37437453399809834 1075.5000000000002 1.5000000000000002 -2.5083311357579703 -0.33450201147797792 47657.500000000007
decision_type=2 2 2 2 2 2 2 2 2 2 2 2 2 2 2 2 2 2 2 2 2 2 2 2 2 2 2 2 2 2 2 2 2 2 2 2 2 2 2 2 2 2 2 2 2 2 2 2 2 2 2 2 2 2 2 2 2 2 2 2 2 2 2
left_child=1 6 5 8 7 14 10 -3 25 19 24 17 41 26 31 22 35 -8 27 33 28 36 -7 -10 -1 37 51 -13 57 -19 -28 -2 -20 -9 47 53 -12 -4 39 -22 -40 -5 -23 56 58 -36 -18 -16 -31 -48 55 -6 -47 54 -15 -39 -24 -11 59 -25 -17 -21 -43
right_child=2 4 3 12 13 15 11 9 23 20 21 18 -14 16 34 60 46 29 32 61 38 42 43 44 -26 -27 30 -29 -30 48 -32 -33 -34 -35 45 -37 -38 50 40 -41 -42 62 -44 -45 -46 52 49 -49 -50 -51 -52 -53 -54 -55 -56 -57 -58 -59 -60 -61 -62 -63 -64
leaf_value=-0.13420870247341338 0.0065805690188071603 0.0086575934321930018 0.031585415127450854 0.046238433023293814 -0.019745095126267712 0.020572870020539716 -0.092785526449615907 -0.04807987346737698 0.034277806465442366 -0.034531358129029112 -0.10870557993650437 -0.083016833929078923 0.083089119782213311 -0.028028043267670989 -0.003392437948104596 0.043064501597767785 -0.010997528067469646 -0.057004886144336235 -0.061058673133020817 -0.067794333895047507 -0.028577863864869959 -0.081603792828062308 0.012298007571552041 0.029995238739583232 -0.10465842457488179 0.032805294439293524 0.014048244854943319 -0.055603560386225583 -0.049454522591370807 -0.06873081578892104 -0.0060918715383038568 0.018278422258511375 -0.039514133538596515 -0.038127952087795576 -0.0032291989649705119 -0.0096896978961821239 -0.081242938126836514 0.028418815518553193 -0.029669691273197532 -0.04288225098853074 -0.016082634532759928 0.053242462211185032 -0.05653146718229566 0.017903592097337006 0.048204192568447962 0.008151004457392412 -0.014020189251233307 -0.017143990208084384 -0.088501018285751354 -0.030555956913648472 0.0255545621141068 -0.007493282246760765 -0.0052314043216340781 -0.020964038373740244 -0.045948225259780887 0.014940665174799507 0.0022627929115068106 -0.046539685325697071 0.045119845786172418 0.04118364761095672 0.026701420520321803 -0.053089609318054648 0.063603982919206228
leaf_weight=21 287 30 134 60 59 325 37 178 325 233 20 21 61 214 226 21 157 47 23 33 83 23 322 72 32 269 33 32 65 49 58 79 82 149 126 27 21 37 125 63 58 81 21 185 121 158 45 36 21 38 309 86 35 89 24 112 59 40 92 84 118 65 96
leaf_count=21 287 30 134 60 59 325 37 178 325 233 20 21 61 214 226 21 157 47 23 33 83 23 322 72 32 269 33 32 65 49 58 79 82 149 126 27 21 37 125 63 58 81 21 185 121 158 45 36 21 38 309 86 35 89 24 112 59 40 92 84 118 65 96
internal_value=-1.47199e-05 -0.0372889 0.023362 0.0370657 -0.0291755 0.0105177 -0.0724834 -0.0378829 0.0324253 -0.0391615 -0.0950124 -0.0625186 0.0612797 -0.0174048 0.00279475 0.0176184 -0.0214593 -0.0736274 -0.051691 -0.0468878 -0.0342384 -0.0816972 0.0158157 0.0385347 -0.116367 0.0275009 -0.00719966 -0.0664654 -0.0388223 -0.0675689 0.00121169 0.00910552 -0.0442334 -0.0435452 -0.00118071 -0.0260683 -0.0946393 0.0250906 -0.029529 -0.0347503 -0.0253634 0.0556664 -0.0696375 0.0130841 0.0422841 0.00218771 -0.014661 -0.00528196 -0.0746619 -0.0215908 0.0231904 -0.0124785 0.00572414 -0.0274207 -0.0298351 0.0182876 0.010744 -0.0362908 0.0393956 0.0360198 0.0291735 -0.0580412 0.0588623
internal_weight=6232 2402 3830 1853 1952 1977 450 1122 1555 1092 138 312 298 830 947 1030 594 154 158 425 667 85 891 694 53 861 236 53 338 117 91 366 105 327 581 354 41 592 329 146 183 237 44 566 369 319 240 262 70 83 458 145 193 327 238 149 381 273 248 156 139 98 177
internal_count=6232 2402 3830 1853 1952 1977 450 1122 1555 1092 138 312 298 830 947 1030 594 154 158 425 667 85 891 694 53 861 236 53 338 117 91 366 105 327 581 354 41 592 329 146 183 237 44 566 369 319 240 262 70 83 458 145 193 327 238 149 381 273 248 156 139 98 177
is_linear=0
shrinkage=0.05


Tree=9
num_leaves=64
num_cat=0
split_feature=29 5 29 29 29 5 3 5 29 18 29 5 5 3 5 0 16 0 5 21 30 18 29 42 3 29 81 74 29 2 62 18 2 75 30 5 38 69 14 36 9 29 29 22 9 5 62 2 0 45 3 30 2 2 17 99 69 3 3 29 3 3 44
split_gain=1960.45 261.521 236.251 84.906 83.0833 52.9373 24.8174 20.4792 14.9184 13.8222 11.5828 10.9923 10.6338 8.8397 8.77724 8.17737 7.51176 7.08682 6.313 5.94831 5.89006 5.51939 5.51168 5.08168 4.50264 4.0921 3.81298 3.75448 3.68905 4.51887 3.61822 3.52121 3.35714 3.02583 3.00433 2.97365 2.79599 2.65026 2.5185 2.47052 2.45478 2.42251 2.28655 2.26164 2.25657 3.48101 2.66468 2.20849 2.10631 2.46568 2.02505 2.0161 1.98197 1.88754 1.84191 1.80761 1.80519 1.75788 1.75039 1.73169 1.7211 1.72018 1.68618
threshold=266.50000000000006 14906.000000000002 53.500000000000007 138.50000000000003 528.50000000000011 38126.500000000007 94.000000000000014 154.50000000000003 821.50000000000011 1.5000000000000002 83.500000000000014 20901.000000000004 7386.0000000000009 4.5000000000000009 2660.0000000000005 22.500000000000004 7.5000000000000009 17.500000000000004 2833.5000000000005 30.500000000000004 5.5000000000000009 1.5000000000000002 22.500000000000004 1.0342435688654505 31.500000000000004 368.50000000000006 -0.16752042985896684 -0.4469224017781242 178.50000000000003 120.51719725439445 -0.18395534893088936 1.5000000000000002 776.21327927563664 0.093635527993382164 6.5000000000000009 27850.500000000004 1.1140586042462068 0.098822698364306016 87.500000000000014 2.8162049157720532 145.66727337890299 675.50000000000011 199.50000000000003 23.500000000000004 50.211137287557186 515.50000000000011 0.63227131391462599 276.09949713494854 11.000000000000002 1.2781821600802599 260.00000000000006 5.5000000000000009 376.32714673133199 917.15623323565831 1.5000000000000002 -0.033277771970590279 0.18160308172339751 966.00000000000011 1556.0000000000002 92.500000000000014 1964.5000000000002 42.500000000000007 0.60416564702804509
decision_type=2 2 2 2 2 2 2 2 2 2 2 2 2 2 2 2 2 2 2 2 2 2 2 2 2 2 2 2 2 2 2 2 2 2 2 2 2 2 2 2 2 2 2 2 2 2 2 2 2 2 2 2 2 2 2 2 2 2 2 2 2 2 2
left_child=2 4 7 6 12 11 10 22 31 20 16 32 21 56 28 60 24 34 48 39 42 52 -1 -22 36 40 -21 -18 61 -30 -26 51 -3 37 44 58 55 -24 -29 -15 -23 62 -5 -10 59 -46 -47 -27 49 -8 -25 -6 -2 -37 -31 -4 -9 -14 -13 -12 -7 -11 -33
right_child=1 5 3 9 8 15 18 13 43 14 17 35 57 19 -16 -17 27 -19 -20 26 23 25 33 50 30 47 -28 38 29 54 -32 41 -34 -35 -36 53 -38 -39 -40 -41 -42 -43 -44 -45 45 46 -48 -49 -50 -51 -52 -53 -54 -55 -56 -57 -58 -59 -60 -61 -62 -63 -64
leaf_value=-0.11949967456900555 0.0077761753281516818 0.034278391407181821 -0.086345195531845109 -0.019984240782888314 0.01347816728488801 0.052531548738479622 -0.035478710204893793 -0.078741395115852361 0.024105160830450462 -0.035262774742738 -0.046537335803732281 0.035515134168478353 0.010794996930490857 -0.047134224016219382 -0.012088706360858244 0.07938036570946376 -0.058919905737424505 -0.016938048737938517 -0.00065381926085267749 -0.058430486528769789 -0.011889033126304063 -0.0007128822951795752 -0.086482839150862259 0.0034006371063047222 -0.062038994400665681 0.0046949717176193156 -0.084224069745917077 -0.052027088384094991 -0.015563115502204612 -0.018167752761704226 -0.035148912100968037 0.013934738586032567 0.025890044922554735 -0.078136836047525762 -0.029268529514471692 0.05340216718614102 -0.056249562154213589 -0.11027763509750366 -0.036701287763131848 -0.067240594598379999 -0.010187330449149119 0.017361305649884393 -0.0082165418148889176 0.030254769846718401 -0.061911961138248442 -0.046140595270546376 -0.029909967929124832 -0.0036096704116654259 -0.024075220471534594 -0.016639681346714497 0.024231851798394929 0.023045966377816141 -0.0031039943895302714 0.042814606137391999 -0.032493675065886102 -0.066178081035614011 -0.098151079468105154 0.0226715576148739 0.043294300729858466 -0.036787477977051543 0.063226718885797853 -0.026983625184104673 0.0062063914362600787
leaf_weight=23 257 300 25 95 72 80 132 25 405 102 60 192 173 50 144 60 39 32 21 23 41 111 22 28 29 211 38 38 137 30 22 188 198 27 48 64 24 25 91 22 178 304 73 237 30 161 30 129 117 20 20 234 50 123 89 20 23 38 116 189 71 163 113
leaf_count=23 257 300 25 95 72 80 132 25 405 102 60 192 173 50 144 60 39 32 21 23 41 111 22 28 29 211 38 38 137 30 22 188 198 27 48 64 24 25 91 22 178 304 73 237 30 161 30 129 117 20 20 234 50 123 89 20 23 38 116 189 71 163 113
internal_value=-1.39839e-05 0.0216417 -0.03633 -0.0304644 0.013 0.0410209 -0.0396641 -0.0795834 0.0205377 -0.0192093 -0.044027 0.036188 0.00279411 -0.0696488 -0.0230151 0.0637651 -0.0521504 -0.0397732 -0.0270569 -0.0630107 -0.0093615 0.000508327 -0.0981211 0.00103825 -0.0617049 -0.00217406 -0.0744986 -0.0453257 -0.026035 -0.0217544 -0.0504394 0.0164238 0.0309433 -0.0914765 -0.0411839 0.0414646 -0.0700316 -0.0991396 -0.0412159 -0.0532778 -0.00654836 0.014213 -0.0148709 0.0263753 -0.0424008 -0.0460783 -0.0435913 0.00154409 -0.0291182 -0.0329999 0.0120803 0.0207947 0.00600416 0.0464382 -0.0288821 -0.077382 -0.0880419 0.0129339 0.038445 -0.0391368 0.0575604 -0.0301703 0.0110334
internal_weight=6232 3904 2328 2050 2700 1204 1128 278 1553 922 838 993 1147 181 665 211 288 550 290 133 257 936 97 89 120 629 61 168 521 256 51 911 498 74 518 495 69 47 129 72 289 605 168 642 470 221 191 340 269 152 48 306 307 187 119 45 48 211 308 249 151 265 301
internal_count=6232 3904 2328 2050 2700 1204 1128 278 1553 922 838 993 1147 181 665 211 288 550 290 133 257 936 97 89 120 629 61 168 521 256 51 911 498 74 518 495 69 47 129 72 289 605 168 642 470 221 191 340 269 152 48 306 307 187 119 45 48 211 308 249 151 265 301
is_linear=0
shrinkage=0.05


Tree=10
num_leaves=64
num_cat=0
split_feature=1 12 1 12 1 12 30 32 0 0 1 12 12 30 30 1 1 30 1 0 0 30 77 8 24 32 1 8 8 8 6 27 0 1 12 63 6 6 17 47 48 32 43 37 6 6 10 6 71 32 12 2 49 0 44 1 6 51 10 27 95 69 50
split_gain=1596.33 275.336 216.738 64.9028 55.505 41.6829 30.4353 16.2066 14.9079 12.9029 12.5499 12.0884 10.9666 8.99745 8.08454 7.16307 6.75032 6.29996 6.03645 6.23775 5.90349 5.84545 5.68744 5.18699 5.04672 5.02276 4.24662 4.38524 4.18617 4.07272 3.9981 3.8913 3.86698 3.75563 3.60222 3.48806 3.32642 3.08702 2.98481 2.96709 2.91359 2.89684 2.78988 2.68122 2.63156 2.56232 2.47703 2.39748 2.39243 2.36911 2.31963 2.24469 2.09175 2.08474 2.07398 1.99217 2.55083 1.97968 1.95465 1.94555 1.95128 1.93719 2.42886
threshold=292.71527777777783 12847.500000000002 76.104166666666671 36631.500000000007 25.041666666666668 5454.5000000000009 5.5000000000000009 149.99500000000003 7.0000000000000009 12.500000000000002 131.97916666666671 21024.500000000004 62268.500000000007 4.5000000000000009 5.5000000000000009 14.812500000000002 170.14583333333334 3.5000000000000004 842.37500000000011 11.000000000000002 4.5000000000000009 7.5000000000000009 0.022860732754157734 162.04166666666671 19.500000000000004 47.990000000000009 209.06250000000003 241.92857142857147 80.725000000000009 317.62500000000006 -132.60389610389623 198.50000000000003 15.500000000000002 37.225000000000009 3416.5000000000005 -0.29836349086609343 -5.6984848484848589 -19.312337662337651 1.0000000180025095e-35 0.45459507090672602 0.49226951639653133 67.990000000000009 -0.78882557811252274 -1.9020014924889213 -6.6131302521008335 -35.6027472527472 87.000000000000014 -352.76558441558427 -0.28106641321980558 67.990000000000009 827.50000000000011 494.33219559353603 -0.76568396700662966 11.000000000000002 -0.15918208291532907 448.08333333333343 -70.113095238095141 -0.48942726971270656 35.500000000000007 471.50000000000006 -0.26838093413092928 0.014693427125811663 0.29049410521237923
decision_type=2 2 2 2 2 2 2 2 2 2 2 2 2 2 2 2 2 2 2 2 2 2 2 2 2 2 2 2 2 2 2 2 2 2 2 2 2 2 2 2 2 2 2 2 2 2 2 2 2 2 2 2 2 2 2 2 2 2 2 2 2 2 2
left_child=2 5 4 11 8 13 10 17 -1 16 23 21 47 55 -7 32 31 22 19 -16 -12 51 44 35 -15 46 27 40 33 -28 -13 -8 -10 39 61 52 -17 -30 -38 -19 59 -37 -39 -32 -6 -42 -18 -5 -48 -36 -33 -3 -4 -23 -20 56 -2 -50 -24 -22 -61 -26 -63
right_child=1 3 6 12 7 14 9 -9 15 -11 20 30 -14 24 18 36 25 28 54 -21 26 53 58 -25 34 -27 29 -29 37 -31 43 50 -34 -35 49 41 38 42 -40 -41 45 -43 -44 -45 -46 -47 48 -49 57 -51 -52 -53 -54 -55 -56 -57 -58 -59 -60 60 -62 62 -64
leaf_value=-0.10919925272464753 -0.024553432477972446 0.026907915590628464 -0.023802257228332263 0.039208037576131657 -0.032971179097269973 0.0068066471811323095 -0.035394406521862203 -0.085430214611383587 -0.099224886068930998 0.029381140619516372 -0.03840181416211029 0.030495162326907001 0.067999389706825716 0.013511917528727753 0.0076157407456311213 -0.07861850767031961 0.0055481297258452023 -0.041985788581271971 0.022729974587177081 0.020044840159732225 -0.022485493925810493 0.027542211412341446 -0.077548263967037206 -0.046443139549279422 -0.00015143085967655445 -0.017996124874404284 -0.011197335621876517 -0.037035688549946703 -0.065489664776571865 -0.027628150295155748 0.046940456854330528 -0.030801755260853544 -0.074063275472537896 -0.037592623121652409 0.0042715435465685639 -0.025419795006913416 -0.069935111045837411 -0.032178619139206908 -0.047803359765272876 -0.059841667350969824 -0.041399012864739813 -0.043290568418800829 -0.052500403528673613 0.036115441913346924 -0.057528560161590581 -0.023585428175283599 -0.021857141552581675 0.050936254899244054 -0.016045529358088971 -0.010254639002184074 -0.012346941350648802 0.020020084721306203 -0.040178258547810125 0.036584714806598168 0.016551474185837071 -0.0037183921318501238 -0.0085967333433550914 0.002464923904895281 -0.057082341387867934 0.00048847516022977372 -0.016512053982127285 -0.0033039352685833977 -0.019331985798019632
leaf_weight=32 39 180 24 57 24 329 33 26 26 20 48 289 98 89 313 23 68 60 251 149 118 143 28 57 119 67 176 51 29 48 74 21 37 291 436 244 25 24 39 38 27 25 57 252 20 80 21 185 20 30 90 345 104 115 296 75 70 52 20 21 86 60 39
leaf_count=32 39 180 24 57 24 329 33 26 26 20 48 289 98 89 313 23 68 60 251 149 118 143 28 57 119 67 176 51 29 48 74 21 37 291 436 244 25 24 39 38 27 25 57 252 20 80 21 185 20 30 90 345 104 115 296 75 70 52 20 21 86 60 39
internal_value=0.000325886 0.0192832 -0.0329153 0.0342957 -0.0539526 0.00791422 -0.0217169 -0.0467952 -0.078217 -0.00974147 -0.0259499 0.0295307 0.0538883 -5.34211e-05 0.013613 -0.0716075 -0.0118448 -0.0450956 0.0158324 0.0116243 -0.0215216 0.0254101 -0.0571182 -0.0323386 0.00231192 -0.00649211 -0.0201868 -0.0233851 -0.0428789 -0.0147182 0.0347769 -0.02032 -0.0844474 -0.0404437 0.000854605 -0.0303136 -0.0623096 -0.051491 -0.0564486 -0.0489095 -0.0212882 -0.0270806 -0.0464791 0.0385727 -0.0441336 -0.0280804 -0.00170473 0.0481738 -0.0070079 0.00333638 -0.0158384 0.0223816 -0.0371078 0.0315728 0.0193866 -0.00999041 -0.014306 -0.00267687 -0.0690208 -0.0180581 -0.0131755 -0.00445048 -0.00961802
internal_weight=6333 4033 2300 1738 799 2295 1501 617 182 392 1109 1398 340 957 1338 150 372 591 1009 462 655 783 92 454 773 228 607 383 499 224 615 144 63 389 684 397 87 110 64 98 332 269 81 326 44 107 161 242 93 466 111 525 128 258 547 184 109 72 48 225 107 218 99
internal_count=6333 4033 2300 1738 799 2295 1501 617 182 392 1109 1398 340 957 1338 150 372 591 1009 462 655 783 92 454 773 228 607 383 499 224 615 144 63 389 684 397 87 110 64 98 332 269 81 326 44 107 161 242 93 466 111 525 128 258 547 184 109 72 48 225 107 218 99
is_linear=0
shrinkage=0.05


Tree=11
num_leaves=64
num_cat=0
split_feature=29 29 29 29 12 29 32 29 32 12 3 30 3 12 26 12 18 32 27 32 0 18 42 3 30 3 76 0 30 95 29 29 0 3 32 12 32 38 65 27 2 57 2 3 30 15 27 2 0 39 29 32 18 58 55 21 93 3 32 43 19 97 12
split_gain=1603.62 207.04 206.633 65.9262 61.9853 34.9152 29.8965 31.0019 12.8156 12.7035 12.5906 11.4184 11.0865 9.72089 8.57146 7.53554 6.65225 6.15498 4.9514 4.89321 4.55335 4.39963 4.26413 4.21773 4.33198 3.94362 3.65405 3.6402 3.57674 3.29637 3.23599 3.15015 2.92128 2.87617 2.75665 2.72961 2.54696 2.42291 2.4003 2.44766 2.80261 2.393 2.29858 2.1278 2.11165 2.05049 1.99311 1.97616 1.91737 1.85628 1.83568 1.78298 3.03485 1.7631 2.263 1.72742 1.7087 2.20633 1.67791 1.93935 1.66245 1.5992 1.56909
threshold=281.50000000000006 765.50000000000011 98.500000000000014 50.500000000000007 32400.500000000004 468.50000000000006 8.990000000000002 178.50000000000003 69.995000000000019 62268.500000000007 91.000000000000014 3.5000000000000004 106.00000000000001 18198.000000000004 521.50000000000011 16870.000000000004 1.5000000000000002 42.990000000000009 674.50000000000011 42.990000000000009 11.000000000000002 1.5000000000000002 -0.44603008111527948 33.000000000000007 3.5000000000000004 68.500000000000014 0.084002700403803074 11.000000000000002 5.5000000000000009 -0.043449709475468563 661.50000000000011 138.50000000000003 17.500000000000004 1029.5000000000002 67.990000000000009 47657.500000000007 57.990000000000009 -1.6020535709353338 -0.47448323873820625 275.50000000000006 52.166260338974645 0.36193968470185284 1042.9918269048667 713.50000000000011 6.5000000000000009 6.5000000000000009 751.50000000000011 512.71328853828368 22.500000000000004 -2.6432772757441083 1052.5000000000002 67.990000000000009 4.5000000000000009 0.058783254518695767 -0.25438774112152551 27.500000000000004 0.079222475104754567 131.50000000000003 57.990000000000009 -0.44568332708148156 89.500000000000014 -0.041718910957037052 25763.500000000004
decision_type=2 2 2 2 2 2 2 2 2 2 2 2 2 2 2 2 2 2 2 2 2 2 2 2 2 2 2 2 2 2 2 2 2 2 2 2 2 2 2 2 2 2 2 2 2 2 2 2 2 2 2 2 2 2 2 2 2 2 2 2 2 2 2
left_child=2 5 3 8 13 16 -4 12 11 35 18 14 19 27 29 21 43 25 23 32 -13 49 41 24 45 -9 -22 33 31 -1 58 -21 44 -3 -26 -6 53 -27 -12 -40 -41 -10 62 -2 -8 -5 -20 -29 -11 -7 -44 52 -18 54 -25 -14 57 -19 59 -23 -17 -56 -15
right_child=1 4 6 10 9 15 7 17 22 48 38 20 55 42 -16 60 51 56 46 28 26 30 -24 36 34 37 -28 47 -30 -31 -32 -33 -34 -35 -36 -37 -38 -39 39 40 -42 -43 50 -45 -46 -47 -48 -49 -50 -51 -52 -53 -54 -55 61 -57 -58 -59 -60 -61 -62 -63 -64
leaf_value=-0.081104469915916189 0.0055810906312539462 0.020096710579195997 0.038362329803584588 -0.057539660655535188 0.041356016610032374 0.027324461276155145 -0.030429521993622741 -0.015801298210375056 -0.09025410654998961 0.058286372654967833 -0.04373904753476382 -0.045970091004190701 -0.020956465843980285 0.032602032359462484 -0.10435367031739309 0.022056672795197366 -0.00559871190001077 -0.022599706357522384 -0.029202595007761074 -0.044341582875876202 -0.078359819075156906 0.015396824337993609 -0.074336156816709617 -0.031355111495308251 -0.046835331911290135 -0.014189799109419041 -0.051984950775901477 0.034622990098737531 -0.022885856829510123 -0.056586553987402179 0.015647521502860272 -0.030988032009233446 -0.015952239946826645 0.027094194154647928 -0.064910559654235853 0.051468210035692089 -0.055176486959680915 -0.0032781425520886052 -0.040409177243709571 -0.026979524626429857 -0.006557595741469413 -0.11442031860351563 0.02288313180130596 0.018336520975808037 -0.016136209420593722 -0.078546061402275449 -0.042636356177166684 0.023247946994379164 0.072347252138636339 0.016134065570458052 0.03234485607255589 -0.0098455868022014892 0.0025708243152789342 -0.031998252796427332 -0.060373392701148991 -0.0093089832542722836 -0.026501966511209809 -0.0079086277904638728 0.00086454145374077881 0.0072116373940353667 0.035155812779377252 -0.042212967188270008 0.039984479922916476
leaf_weight=29 281 483 21 26 243 42 335 167 21 54 20 56 275 279 26 147 202 63 48 126 29 99 21 23 135 68 24 105 38 26 209 68 46 211 25 92 32 202 20 56 24 20 96 37 28 21 65 60 44 315 110 65 260 49 22 36 75 43 68 269 29 27 97
leaf_count=29 281 483 21 26 243 42 335 167 21 54 20 56 275 279 26 147 202 63 48 126 29 99 21 23 135 68 24 105 38 26 209 68 46 211 25 92 32 202 20 56 24 20 96 37 28 21 65 60 44 315 110 65 260 49 22 36 75 43 68 269 29 27 97
internal_value=0.000309591 0.0202021 -0.0315136 -0.0514955 0.0321763 0.00910988 -0.0209009 -0.0216936 -0.0729193 0.0487652 -0.0423913 -0.0664783 -0.0273546 0.0271916 -0.0806972 0.0146732 0.00135414 -0.0129732 -0.0460609 -0.0311129 -0.0559119 0.0129972 -0.0926581 -0.048927 -0.0535799 -0.0097618 -0.0664165 0.0238113 -0.0369133 -0.0695142 0.0105323 -0.039661 -0.0278228 0.0222242 -0.0496596 0.0441331 -0.042632 -0.00602626 -0.0279267 -0.0247642 -0.0208529 -0.102043 0.0321807 0.00706521 -0.029327 -0.0669255 -0.03693 0.0304866 0.0645994 0.0174506 0.0279355 -0.00209201 -0.00100114 -0.0393144 -0.0442935 -0.0196082 -0.0207265 -0.0166401 0.00808029 0.00941363 0.0242151 -0.0503666 0.0345065
internal_weight=6333 3897 2436 845 1874 2023 1591 1570 252 433 593 190 952 1441 81 1178 845 618 473 641 109 1002 62 360 207 437 53 859 232 55 645 194 409 694 160 335 153 270 120 100 80 41 582 318 363 47 113 165 98 357 206 527 462 121 72 311 181 106 436 368 176 49 376
internal_count=6333 3897 2436 845 1874 2023 1591 1570 252 433 593 190 952 1441 81 1178 845 618 473 641 109 1002 62 360 207 437 53 859 232 55 645 194 409 694 160 335 153 270 120 100 80 41 582 318 363 47 113 165 98 357 206 527 462 121 72 311 181 106 436 368 176 49 376
is_linear=0
shrinkage=0.05


Tree=12
num_leaves=64
num_cat=0
split_feature=29 29 29 29 0 29 29 1 0 3 3 1 0 29 3 21 3 3 6 39 29 40 49 47 2 29 61 9 30 39 49 77 44 54 3 39 23 42 97 3 86 43 29 1 9 41 26 44 19 4 39 30 96 9 0 26 43 42 88 86 39 26 13
split_gain=1447.27 186.854 186.639 47.8587 41.0542 36.2773 31.5639 22.4869 17.5967 11.5989 10.6323 9.5796 8.28089 7.26439 6.89065 6.70924 5.29666 5.07396 4.83515 4.27321 4.22088 3.8866 3.67143 3.60951 3.46805 3.44319 3.40571 3.18534 3.14625 3.01734 3.13584 2.99128 2.97681 3.43446 2.68203 2.63144 2.58842 2.58456 2.40245 2.36115 2.35366 2.25829 2.24676 2.2102 2.99551 2.18898 2.0757 2.05921 1.89167 1.78546 1.75544 1.73759 1.71095 1.70663 1.6979 1.69764 1.67903 1.66494 1.6327 1.57021 1.50814 1.48189 1.99056
threshold=281.50000000000006 765.50000000000011 86.500000000000014 45.500000000000007 11.000000000000002 155.50000000000003 478.50000000000006 2236.7083333333335 22.500000000000004 91.000000000000014 96.500000000000014 2086.0000000000005 19.500000000000004 22.500000000000004 134.50000000000003 31.500000000000004 814.50000000000011 1324.5000000000002 -1.08656343656344 -1.7574904697573619 604.50000000000011 0.84717880441219762 -0.091648959593045212 -0.11014025344680382 28.036524832314353 222.50000000000003 -0.44573957586966245 207.27995976234737 3.5000000000000004 0.18782651454798791 0.059753993956962591 0.02667734455378654 1.0000000180025095e-35 -0.78376168336567542 2473.5000000000005 -1.2879102563483873 1.5000000000000002 0.74424897172919824 0.19020436162813817 3136.0000000000005 -0.41228169418095223 0.7610159997752618 1017.5000000000001 643.25000000000011 377.11652244195869 0.38041202656453615 332.50000000000006 0.16053813170009815 89.500000000000014 310.00000000000006 0.5668949953146315 3.5000000000000004 -0.38394445350085832 50.211137287557186 15.500000000000002 150.50000000000003 0.21090009382957225 0.14493877092581145 -0.087778000914770296 0.0424063948533848 -2.564569273732324 150.50000000000003 -12.357142857142843
decision_type=2 2 2 2 2 2 2 2 2 2 2 2 2 2 2 2 2 2 2 2 2 2 2 2 2 2 2 2 2 2 2 2 2 2 2 2 2 2 2 2 2 2 2 2 2 2 2 2 2 2 2 2 2 2 2 2 2 2 2 2 2 2 2
left_child=2 6 3 13 11 8 19 17 10 15 29 42 34 -1 25 23 20 54 26 57 -8 58 -17 40 -25 35 -15 -27 -24 55 53 -28 33 -16 -9 49 -18 -12 -11 -13 -5 60 46 44 -21 -19 -3 -39 -38 -7 -34 -35 -32 -31 -6 -4 -44 -2 -20 -14 -22 -26 -63
right_child=1 4 5 9 7 14 16 12 -10 38 37 39 59 18 32 22 36 45 21 43 41 -23 28 24 61 27 31 -29 -30 30 52 -33 50 51 -36 -37 48 47 -40 -41 -42 -43 56 -45 -46 -47 -48 -49 -50 -51 -52 -53 -54 -55 -56 -57 -58 -59 -60 -61 -62 62 -64
leaf_value=-0.098759434123833978 0.0034282566921319813 0.023212539653446693 -0.03518455331317253 -0.053016983853145086 0.028238522564144438 -0.0022399298525575934 0.0085065446694372292 0.042596503079701697 0.014086905874622366 -0.033010793869228415 -0.024644813072671624 0.029090078071429871 0.073244906051291359 -0.088478030656513426 0.01522656255401671 -0.074353358094339017 0.014322978547105805 0.047727130438600274 -0.060184347778558737 -0.00036303066350144988 0.03056715110486204 -0.047723632135561536 -0.066229973905361617 -0.040198525019428312 -0.063778838934376844 -0.0056995384380741148 -0.058943670941516757 -0.020311117241708716 -0.044098515985977083 -0.036144509157306992 -0.044622890570241477 -0.08154156539175246 -0.0080297561760053222 -0.018944836585697802 0.055269876906746312 -0.022585624139238564 0.021511109741358701 -0.0075662630051374444 -0.014973842088753977 0.039658559178785677 -0.035292388763766558 0.0097263525448658544 0.030009931380353762 0.0038412033461387345 -0.012553094374015928 0.032821098950348404 0.016676469390426159 -0.022397332858632914 0.035653677662568432 -0.018293725588727137 -0.01783441656111141 -0.0035159341390647221 -0.029977472482870023 -0.047203512484761512 0.036169989151733646 -0.02699418131069678 0.021233298340175524 0.014614319213433192 -0.080145754416783663 0.057893309477836857 0.016969620558645201 -0.044015541691333059 -0.063334705233573915
leaf_weight=24 58 201 90 22 279 29 403 156 24 48 190 328 36 38 22 27 124 70 20 435 22 35 26 68 32 96 32 61 42 66 23 27 100 22 57 270 152 50 30 63 126 115 102 272 57 38 307 44 28 43 84 107 150 74 89 213 117 78 21 31 279 40 20
leaf_count=24 58 201 90 22 279 29 403 156 24 48 190 328 36 38 22 27 124 70 20 435 22 35 26 68 32 96 32 61 42 66 23 27 100 22 57 270 152 50 30 63 126 115 102 272 57 38 307 44 28 43 84 107 150 74 89 213 117 78 21 31 279 40 20
internal_value=0.000294112 0.019192 -0.0299379 -0.0522236 0.0305675 -0.021343 0.00865439 0.0395671 -0.0281668 -0.0437221 -0.0292936 0.0244819 0.0508105 -0.0729811 -0.0137829 -0.047138 0.0142455 0.0329533 -0.069405 0.00167791 0.0121534 -0.0599615 -0.0587543 -0.043555 -0.0487609 -0.0175067 -0.076804 -0.0113766 -0.0525605 -0.0329836 -0.0364267 -0.0692851 -0.00823604 -0.00303316 0.045988 -0.0203208 0.0198817 -0.0212898 -0.0260735 0.0307929 -0.0379271 0.0156864 0.0210876 0.000224297 -0.00177529 0.0424824 0.0192626 -0.0145085 0.0237111 -0.0118276 -0.0125058 -0.00614722 -0.0319246 -0.04199 0.0301567 -0.029427 0.025321 0.00984379 -0.0704085 0.0661419 0.0179635 -0.0550896 -0.0504553
internal_weight=6333 3897 2436 678 1874 1758 2023 756 924 481 900 1118 280 197 834 403 1123 476 173 900 819 76 95 308 160 499 97 157 68 616 313 59 335 151 213 342 304 284 78 391 148 416 727 764 492 108 508 94 180 72 184 129 173 140 368 303 219 136 41 67 301 92 60
internal_count=6333 3897 2436 678 1874 1758 2023 756 924 481 900 1118 280 197 834 403 1123 476 173 900 819 76 95 308 160 499 97 157 68 616 313 59 335 151 213 342 304 284 78 391 148 416 727 764 492 108 508 94 180 72 184 129 173 140 368 303 219 136 41 67 301 92 60
is_linear=0
shrinkage=0.05


Tree=13
num_leaves=64
num_cat=0
split_feature=29 5 29 29 29 5 32 29 5 5 5 26 1 1 6 32 32 29 29 32 5 30 7 16 17 80 18 32 22 42 26 48 6 43 29 2 5 93 16 6 9 2 9 7 6 6 44 18 10 2 11 32 17 32 32 5 29 13 27 32 10 27 18
split_gain=1306.16 174.944 169.417 53.5248 49.6572 39.3716 25.6051 25.4318 12.2109 9.07139 7.75758 7.24675 7.04797 6.01555 7.05037 5.5206 5.44334 5.01027 4.7209 4.35952 4.23225 4.1922 4.87868 4.03666 3.89777 3.78868 3.4996 3.41119 3.22727 3.1475 3.05663 2.81804 2.81199 2.76027 2.7385 2.52576 2.51956 2.37846 2.26671 2.08601 1.9904 1.97015 1.96474 1.96059 1.95319 1.85684 1.84421 1.77894 1.7268 1.6754 1.6754 1.63045 1.62395 2.75503 1.58383 1.54913 1.54167 1.52824 1.76178 1.56912 1.73629 1.52034 3.26911
threshold=281.50000000000006 14269.500000000002 98.500000000000014 50.500000000000007 586.50000000000011 30840.500000000004 8.990000000000002 178.50000000000003 154.50000000000003 7498.5000000000009 45118.500000000007 521.50000000000011 82.937500000000014 35.562500000000007 -8.5509358288769963 69.995000000000019 42.990000000000009 800.50000000000011 468.50000000000006 69.995000000000019 22781.000000000004 5.5000000000000009 19.500000000000004 7.5000000000000009 1.0000000180025095e-35 -0.17500361916153059 1.5000000000000002 47.990000000000009 25.500000000000004 0.7890974666745505 150.50000000000003 0.50518108815500773 -12.517669172932331 0.7610159997752618 214.50000000000003 828.38125948321101 86936.000000000015 -0.13419072217776587 19.500000000000004 -77.363095238095198 227.48504261461005 26.100167617117176 83.476531975187712 11.000000000000002 -3.0961038961038962 -92.857683982683881 0.56880502741684424 3.5000000000000004 87.000000000000014 512.71328853828368 135.50000000000003 67.990000000000009 2.5000000000000004 32.990000000000009 37.990000000000009 2100.5000000000005 1033.5000000000002 -9.4422660672660612 660.50000000000011 37.990000000000009 38.500000000000007 576.50000000000011 3.5000000000000004
decision_type=2 2 2 2 2 2 2 2 2 2 2 2 2 2 2 2 2 2 2 2 2 2 2 2 2 2 2 2 2 2 2 2 2 2 2 2 2 2 2 2 2 2 2 2 2 2 2 2 2 2 2 2 2 2 2 2 2 2 2 2 2 2 2
left_child=2 4 3 8 9 20 -4 12 11 18 44 19 27 23 30 24 34 33 26 -1 35 22 32 41 25 -10 -2 -8 29 -16 -15 -18 -14 51 42 46 -12 -26 -30 -11 -36 -5 -9 52 -7 -28 -3 -44 -34 -45 -29 -6 -19 -54 -20 -33 -37 58 59 60 -32 62 -23
right_child=1 5 6 13 17 10 7 16 15 39 36 -13 21 14 28 -17 31 43 54 -21 -22 61 -24 -25 37 -27 45 50 38 -31 57 55 48 -35 40 56 -38 -39 -40 -41 -42 -43 47 49 -46 -47 -48 -49 -50 -51 -52 -53 53 -55 -56 -57 -58 -59 -60 -61 -62 -63 -64
leaf_value=-0.060725563563205104 0.0044012577656011151 0.030435858429032001 0.036013781988904592 -0.049782166916590473 0.017406234038079726 0.037910463096840041 -0.027916546458644526 -0.0069309452101255636 -0.047040891647338871 0.007878179839689756 0.053231058054226489 -0.10607336688609351 -0.028193016009919022 -0.056031326869049596 -0.029806647077584486 -0.079517249452571076 -0.014889955121792822 0.022850341466565928 0.0099876879622627576 -0.085341754811150694 0.033188687330418895 0.0023179358652366017 -0.0020495627773925661 -0.040291114872883241 -0.060898591436090922 -0.07405222899773542 -0.0079043722093312657 -0.032099610286990578 -0.042835334710020954 -0.012797264358294862 -0.04481984335929156 -0.036686517311526196 -0.029390497376420063 0.0091380537600259226 -0.0025432263851188673 0.019104469476622487 0.070386884074944714 -0.041304401087306319 -0.02915807653701416 0.016479302833232887 -0.012125221211705116 -0.069648249074816704 -0.0098394576048608448 0.031844365163080729 0.048889756098128206 -0.0010154362930048239 0.023504440959962743 -0.022989218742441156 -0.018874484985523549 0.019011833622097608 -0.046863711163725542 0.004247226250357926 0.020238761853614593 0.0099481645995523321 0.0029213298495120274 -0.019737461295265421 0.026995595324100282 -0.052369069341908804 -0.028998517438671309 -0.046715674500484944 -0.024464457829228858 -0.024456207829061896 -0.017036289291863797
leaf_weight=37 241 296 21 26 403 140 154 70 21 154 121 21 314 37 122 24 127 225 175 35 273 30 24 63 21 34 137 33 69 35 20 28 49 172 183 168 26 59 54 130 77 24 43 67 57 342 142 64 192 41 46 25 228 91 145 26 98 22 38 61 22 30 80
leaf_count=37 241 296 21 26 403 140 154 70 21 154 121 21 314 37 122 24 127 225 175 35 273 30 24 63 21 34 137 33 69 35 20 28 49 172 183 168 26 59 54 130 77 24 43 67 57 342 142 64 192 41 46 25 228 91 145 26 98 22 38 61 22 30 80
internal_value=0.000279406 0.0182324 -0.028441 -0.0465343 0.0106461 0.0330261 -0.0188314 -0.019565 -0.0658382 0.0038954 0.0475732 -0.0802295 -0.0246923 -0.0383309 -0.0358875 -0.0574206 -0.0116667 0.0177849 0.00173266 -0.0726918 0.0279041 -0.0222432 -0.0241206 -0.04871 -0.0534923 -0.0637388 -0.00051316 -0.0322496 -0.030766 -0.0260147 -0.0430575 -0.0189581 -0.025075 0.0144877 -0.00864674 0.0258548 0.0562654 -0.0464479 -0.0368307 0.0118153 -0.00538097 -0.0593179 -0.0134439 0.0208192 0.0410872 -0.00298576 0.0281887 -0.0177047 -0.0210126 0.0269728 -0.0406964 0.0166376 0.0195975 0.0173032 0.00678574 -0.0285259 0.0220117 -0.0401125 -0.0382001 -0.0415949 -0.0341575 -0.0144789 -0.0117579
internal_weight=6333 3897 2436 845 2576 1321 1591 1570 252 1324 344 93 952 593 480 159 618 1252 1040 72 977 719 579 113 135 55 720 233 280 157 200 181 555 600 437 704 147 80 123 284 260 50 177 652 197 479 438 107 241 108 79 428 544 319 320 54 266 163 141 103 42 140 110
internal_count=6333 3897 2436 845 2576 1321 1591 1570 252 1324 344 93 952 593 480 159 618 1252 1040 72 977 719 579 113 135 55 720 233 280 157 200 181 555 600 437 704 147 80 123 284 260 50 177 652 197 479 438 107 241 108 79 428 544 319 320 54 266 163 141 103 42 140 110
is_linear=0
shrinkage=0.05


Tree=14
num_leaves=64
num_cat=0
split_feature=29 5 29 29 5 29 32 29 5 5 5 5 26 32 18 10 29 12 29 6 2 6 23 26 32 32 29 32 5 48 26 69 0 30 22 0 50 21 60 57 6 29 13 77 26 9 30 26 32 30 54 32 52 5 29 83 6 98 48 18 87 38 34
split_gain=1178.81 158.243 152.899 48.4794 45.4798 35.5587 23.1086 23.1938 9.6634 8.11024 7.38754 7.02375 6.68623 6.53599 6.16439 5.90349 4.64978 4.31831 4.15006 3.92181 3.90072 3.89496 4.28149 3.76306 3.46334 3.36952 3.27699 3.17327 2.98071 2.8128 2.7035 2.64417 2.59106 2.54091 2.48362 2.47838 2.3985 2.3326 2.32453 2.21913 2.17197 2.06182 2.03593 2.02768 1.93937 1.79634 1.66158 1.65581 1.75436 1.7384 1.60385 1.56168 1.54184 1.51737 1.50795 1.47874 1.47426 1.45683 1.43359 1.4212 1.41321 1.41053 1.38641
threshold=281.50000000000006 11592.500000000002 98.500000000000014 45.500000000000007 30840.500000000004 604.50000000000011 8.990000000000002 155.50000000000003 323.50000000000006 154.50000000000003 16874.000000000004 53096.500000000007 521.50000000000011 42.990000000000009 1.5000000000000002 108.50000000000001 460.50000000000006 336.50000000000006 214.50000000000003 -2.1042707292707203 494.33219559353603 -8.5509358288769963 5.5000000000000009 150.50000000000003 69.995000000000019 42.990000000000009 945.50000000000011 21.490000000000002 1073.0000000000002 0.53968929285385803 325.50000000000006 -0.15536914400165117 15.500000000000002 7.5000000000000009 16.500000000000004 11.000000000000002 0.24694422204143648 31.500000000000004 -0.1209218592462865 0.52935359232550183 -6.3516639424648718 364.50000000000006 -11.031768231768226 0.11446581343392666 458.50000000000006 227.48504261461005 5.5000000000000009 325.50000000000006 67.990000000000009 7.5000000000000009 1.0043437526960091 42.990000000000009 0.39718487763212268 86936.000000000015 856.50000000000011 -0.11590016787251482 -30.468131868131874 0.10798061901318595 0.31205182853565322 4.5000000000000009 -0.072781752868739905 1.3891393538647485 96.500000000000014
decision_type=2 2 2 2 2 2 2 2 2 2 2 2 2 2 2 2 2 2 2 2 2 2 2 2 2 2 2 2 2 2 2 2 2 2 2 2 2 2 2 2 2 2 2 2 2 2 2 2 2 2 2 2 2 2 2 2 2 2 2 2 2 2 2
left_child=2 5 3 9 10 14 -4 15 17 12 20 40 24 18 41 25 47 37 34 38 -3 23 28 -10 -1 50 30 -21 58 -15 -7 -24 57 -12 -9 -27 56 -5 -11 42 -6 -2 -17 -25 -32 -20 -46 49 59 -16 -8 -43 62 -13 -22 -45 -35 -33 -23 -49 -60 -44 -36
right_child=1 4 6 8 11 26 7 13 21 19 33 53 -14 29 16 39 -18 -19 45 27 54 22 31 43 -26 35 -28 -29 -30 -31 44 32 -34 36 52 -37 -38 -39 -40 -41 -42 51 61 55 46 -47 -48 48 -50 -51 -52 -53 -54 -55 -56 -57 -58 -59 60 -61 -62 -63 -64
leaf_value=-0.058074499014765024 0.0032428381093747081 0.025541338458236668 0.034213092320022134 -0.040320933656192125 0.037332622057821126 0.018636806046809343 -0.024109171328604764 -0.022486929392471211 -0.053714611306786543 -0.07786690363517175 0.025587164907293736 0.05277543009983169 -0.10285457253456116 -0.015676283787354538 -0.00098224871309607158 -0.023114017254814413 0.0052998286212594913 -0.064265243791871596 -0.0024160650707111767 -0.0339582786935827 0.014348483350218141 -0.024537617787373841 -0.02895732180954054 -0.040951757356524468 -0.081160144101489681 -0.030011507844041409 0.021563773227688952 -0.057374855875968939 -0.011908788481377997 -0.026616045605423379 0.0063823407191202185 -0.03043957993614714 -0.054351499003748742 0.031237255696926203 -0.002077295095251318 -0.043201812285070237 0.025861914692365609 -0.059388411343097691 -0.056287967972457414 -0.027240574592195282 0.047269080112497495 0.011287835940789616 -0.0098258680863229121 -0.037512113767917514 0.0087574013417550164 -0.011518960245340677 0.016424578466255259 -0.007049701951849595 -0.013845540383111008 0.010691218082912457 -0.036674528356109348 -0.0028289736437034749 -0.016447302683481723 0.066867539630486417 0.020853216339371164 -0.021382966348901394 0.03996692865732171 -0.046687144515189259 -0.026176554681016852 0.00053621206246713302 -0.041870294418185953 -0.02130017366914733 -0.01215620677014265
leaf_weight=32 152 248 21 81 163 255 273 64 40 26 399 72 20 181 175 79 350 36 183 23 191 81 58 95 33 113 218 39 32 87 109 37 31 114 57 52 115 20 24 66 83 292 97 27 102 77 230 116 44 39 28 21 91 26 167 30 84 22 26 132 32 37 85
leaf_count=32 152 248 21 81 163 255 273 64 40 26 399 72 20 181 175 79 350 36 183 23 191 81 58 95 33 113 218 39 32 87 109 37 31 114 57 52 115 20 24 66 83 292 97 27 102 77 230 116 44 39 28 21 91 26 167 30 84 22 26 132 32 37 85
internal_value=0.000265436 0.0173208 -0.0270189 -0.0442075 0.0290048 0.00863232 -0.0178899 -0.0185868 -0.0376042 -0.0659283 0.0247792 0.0451946 -0.0775736 -0.0128117 0.00338635 -0.024982 0.000868943 -0.0493964 -0.00972469 -0.0570903 0.0207216 -0.0344426 -0.031056 -0.0400694 -0.0697949 -0.0284259 0.0162143 -0.0486881 -0.0256671 -0.0192276 0.0145387 -0.0372825 -0.0426475 0.0282327 -0.0137628 -0.0341685 0.0316051 -0.0440967 -0.067509 -0.0192298 0.0406852 0.00802054 -0.0167475 -0.0364785 0.0121691 -0.00511192 0.014069 -0.0021959 -0.00464448 0.00114516 -0.025278 0.0103407 -0.0113665 0.0565142 0.0173828 -0.0290231 0.0349408 -0.036498 -0.0288344 -0.00301204 -0.0348352 -0.0129941 -0.00811045
internal_weight=6333 3897 2436 845 1662 2235 1591 1570 648 197 1318 344 85 825 1321 745 856 137 557 112 606 511 319 192 65 466 914 62 171 268 696 148 90 712 297 165 313 101 50 279 246 465 213 152 441 260 332 506 292 214 301 313 233 98 358 57 198 59 139 248 58 134 142
internal_count=6333 3897 2436 845 1662 2235 1591 1570 648 197 1318 344 85 825 1321 745 856 137 557 112 606 511 319 192 65 466 914 62 171 268 696 148 90 712 297 165 313 101 50 279 246 465 213 152 441 260 332 506 292 214 301 313 233 98 358 57 198 59 139 248 58 134 142
is_linear=0
shrinkage=0.05


Tree=15
num_leaves=64
num_cat=0
split_feature=29 29 29 29 5 5 5 5 5 29 5 5 59 26 5 29 12 5 42 21 50 13 27 39 39 74 13 2 92 6 15 2 5 61 2 20 5 1 2 2 29 2 29 2 29 47 5 45 29 80 43 5 29 21 62 43 93 6 6 60 75 26 49
split_gain=1092.64 147.086 137.817 46.3181 39.8426 29.9784 17.3312 11.8858 10.5846 9.94946 9.5057 8.02085 7.90344 5.11088 5.08062 4.41365 4.32005 4.10946 3.6922 3.47367 3.40565 3.39689 3.29817 3.2326 3.13719 2.89614 2.78583 2.73466 2.70984 2.63978 2.5335 2.52153 2.51897 2.48856 2.48342 2.46962 2.40564 2.16337 2.04878 2.04086 2.00669 1.97511 1.94229 1.93916 1.95087 1.89919 1.85841 1.80864 1.73327 1.87848 1.70116 1.6926 1.68604 1.88157 1.60299 1.56041 1.54413 1.5321 1.52834 1.50349 1.4866 1.44304 1.38038
threshold=261.50000000000006 821.50000000000011 56.500000000000007 138.50000000000003 25582.000000000004 7758.0000000000009 132.50000000000003 531.50000000000011 4181.0000000000009 468.50000000000006 53096.500000000007 2371.0000000000005 -0.31871136693093249 514.50000000000011 16097.500000000002 207.50000000000003 579.50000000000011 14269.500000000002 -0.94967338325524175 30.500000000000004 0.32760116198815192 -1.0365641711229954 751.50000000000011 0.25894071551844577 -2.3246952946650872 -0.28517532620082858 -38.844355644355652 118.92834821001004 0.058297852547498363 -11.259673659673657 7.5000000000000009 1060.5927962190201 1096.0000000000002 -0.051471882093245741 1042.9918269048667 5.5000000000000009 398.00000000000006 369.66666666666669 529.21040143920834 535.70866920808749 654.50000000000011 214.97608472430605 83.500000000000014 276.09949713494854 319.50000000000006 -0.45841269382299477 4181.0000000000009 0.19006470046815407 155.50000000000003 1.0000000180025095e-35 -0.25469041965358985 86936.000000000015 106.50000000000001 28.500000000000004 0.62475084374500911 0.032526349000887807 -0.1024457504959279 -2.1042707292707203 -6.0059523809523707 -0.1327258693196067 -0.16062154071202148 514.50000000000011 0.6700807920375057
decision_type=2 2 2 2 2 2 2 2 2 2 2 2 2 2 2 2 2 2 2 2 2 2 2 2 2 2 2 2 2 2 2 2 2 2 2 2 2 2 2 2 2 2 2 2 2 2 2 2 2 2 2 2 2 2 2 2 2 2 2 2 2 2 2
left_child=2 5 6 7 17 9 13 16 15 30 31 29 28 18 24 22 36 38 -1 25 -13 -10 23 48 -7 -14 -24 -17 50 35 43 -6 52 -30 57 61 42 56 -3 -26 41 -11 58 44 -2 -27 -45 -18 49 -5 -8 -12 53 -31 -34 -46 -29 -19 -4 -37 -47 -9 -54
right_child=1 4 3 8 10 14 12 11 21 40 51 20 19 -15 -16 27 47 34 -20 -21 -22 -23 26 -25 39 45 -28 37 33 32 -32 -33 54 -35 -36 59 -38 -39 -40 -41 -42 -43 -44 46 55 60 -48 -49 -50 -51 -52 -53 62 -55 -56 -57 -58 -59 -60 -61 -62 -63 -64
leaf_value=-0.085934043072518854 -0.0042184593695204454 0.022099544797700665 -0.05071940555786475 -0.011954345850231633 0.040427154076116328 0.023336806809664639 -0.061631427310845435 -0.039356114260460207 -0.0029556741874936661 0.010654821992207804 0.050037494986443914 -0.017699166447404893 -0.052339183151721959 -0.097256513357162483 0.022698458585109417 -0.0047389196401813119 -0.04340467694728898 0.025473751273615283 -0.058780675261251393 -0.055957423271359621 0.0083792552174556823 0.021982367874377157 -0.043406465243209492 -0.020847982099626725 0.014539442707853715 -0.020753901646189069 -0.020572029322604924 -0.010472590639961489 -0.080680451140953957 -0.028722497385281782 0.0044297264913761196 0.032120818542806732 -0.021954384910673575 -0.057831455902619802 0.020663740168927927 -0.031950867322238188 -0.028521966773204191 -0.006695981696248055 0.016152800256193905 0.0087776820346471482 0.012289413841219857 0.0035421916322850274 -0.031574204085805156 -0.012860725005515494 0.0068503282827938484 -0.028415890829637649 -0.0024084650944517093 -0.061605045979931244 -0.010026672933624858 -0.025567027328020714 -0.044641483141682474 0.065566867071649312 -0.026500390674401488 -0.043227774180747851 -0.0071671636181972215 -0.00088145634630132179 -0.023787882635951975 0.032042447890940386 -0.037779507867314599 -0.02257030187406257 -0.046873374764497086 -0.028861969530582426 -0.013243569054261405
leaf_weight=21 163 337 39 55 176 69 34 95 36 157 74 31 25 25 177 122 39 263 31 37 21 22 22 255 364 23 34 33 26 130 223 190 144 22 184 79 94 53 254 266 204 258 59 65 123 20 123 21 175 47 26 23 72 27 21 139 64 134 55 93 24 50 27
leaf_count=21 163 337 39 55 176 69 34 95 36 157 74 31 25 25 177 122 39 263 31 37 21 22 22 255 364 23 34 33 26 130 223 190 144 22 184 79 94 53 254 266 204 258 59 65 123 20 123 21 175 47 26 23 72 27 21 139 64 134 55 93 24 50 27
internal_value=-7.51872e-05 0.015888 -0.0272585 -0.0224571 0.0273851 0.00782365 -0.0580697 -0.0293918 -0.0141702 0.00342394 0.0398033 -0.0261474 -0.0513741 -0.0786783 0.0151314 -0.0155645 -0.0377406 0.0224793 -0.0697465 -0.0430196 -0.0071675 0.00650358 -0.0180007 -0.0167858 0.0132153 -0.0378163 -0.0295427 -0.010298 -0.0613531 -0.0274847 -0.000133852 0.0361151 -0.0248898 -0.070208 0.0254654 -0.0309309 -0.0348173 -0.0148194 0.0195438 0.0121067 0.00822897 0.00623299 -0.038685 -0.00179401 7.63743e-05 -0.0323973 -0.00602228 -0.0497748 -0.0130462 -0.0182269 -0.0542691 0.0537197 -0.0279948 -0.031217 -0.0200724 0.00274835 -0.0192579 0.0276909 -0.0431482 -0.0268788 -0.0384836 -0.0357374 -0.0228849
internal_weight=6295 3966 2329 2015 1635 2331 314 1097 918 1455 463 790 237 77 876 860 307 1172 52 129 52 58 588 532 699 92 56 272 108 738 836 366 421 48 581 317 247 150 591 630 619 415 153 613 425 67 188 60 277 102 60 97 256 157 165 262 97 397 94 172 44 145 99
internal_count=6295 3966 2329 2015 1635 2331 314 1097 918 1455 463 790 237 77 876 860 307 1172 52 129 52 58 588 532 699 92 56 272 108 738 836 366 421 48 581 317 247 150 591 630 619 415 153 613 425 67 188 60 277 102 60 97 256 157 165 262 97 397 94 172 44 145 99
is_linear=0
shrinkage=0.05


Tree=16
num_leaves=64
num_cat=0
split_feature=5 1 5 5 1 5 5 30 30 17 8 30 32 7 81 1 8 32 7 32 27 52 2 5 6 44 91 33 30 53 50 1 37 62 94 10 62 6 1 8 30 7 10 69 6 15 30 13 27 97 48 75 32 9 5 9 62 84 5 32 5 9 32
split_gain=915.405 154.205 117.296 47.7616 28.0034 26.1233 26.0399 8.37754 7.39337 7.3175 6.30685 5.80598 5.72745 5.38758 4.75297 4.45263 4.50008 4.12639 3.86792 3.79765 3.52844 3.81265 3.50942 3.467 3.22028 3.01057 2.97542 2.82773 2.66498 2.66465 2.51864 2.50091 2.43566 2.34343 2.31529 2.31517 2.55914 2.29513 2.23441 2.86805 2.16448 2.12906 2.09098 2.10609 1.95115 1.93624 1.91354 1.81963 1.78824 1.74015 1.70919 1.67219 1.67011 1.6627 1.6449 1.63404 1.62548 1.54915 1.54157 1.49948 1.47914 1.46206 1.45949
threshold=3234.0000000000005 78.491666666666688 15181.500000000002 240.00000000000003 170.14583333333334 7758.0000000000009 33429.500000000007 5.5000000000000009 4.5000000000000009 1.0000000180025095e-35 189.18750000000003 5.5000000000000009 149.99500000000003 22.500000000000004 -0.32657324264143078 109.56250000000001 121.70000000000002 42.990000000000009 14.500000000000002 57.990000000000009 534.50000000000011 0.13636168239802579 437.84036599502849 25582.000000000004 -1.7998667998667714 0.21786255231509247 -0.49615153117242955 232.50000000000003 5.5000000000000009 0.11244563771674376 -0.36281090996669135 422.43750000000006 0.074645623248385418 -0.12101885839334263 -0.42028290229591775 87.000000000000014 0.16212098929900079 -132.60389610389623 217.89903846153848 245.62500000000003 4.5000000000000009 11.000000000000002 7.5000000000000009 -0.39989675289854731 -6.8892857142856982 6.5000000000000009 7.5000000000000009 -5.1630952380952335 464.50000000000006 0.20913614363082225 -0.18328672007247232 -0.32633079680662419 32.990000000000009 109.21088395693586 1516.0000000000002 207.27995976234737 -0.13294021416839008 0.43615081010339724 53096.500000000007 47.990000000000009 4015.0000000000005 831.44791601723523 37.990000000000009
decision_type=2 2 2 2 2 2 2 2 2 2 2 2 2 2 2 2 2 2 2 2 2 2 2 2 2 2 2 2 2 2 2 2 2 2 2 2 2 2 2 2 2 2 2 2 2 2 2 2 2 2 2 2 2 2 2 2 2 2 2 2 2 2 2
left_child=1 3 5 8 10 11 23 19 20 14 15 -2 26 58 -5 16 29 35 25 38 21 32 41 37 -16 60 -11 59 34 48 -12 -27 -1 42 -17 -9 55 -4 39 -6 -40 -7 -28 -44 -30 -31 62 -45 49 -3 -42 -19 53 -36 -21 -37 -18 -35 -8 -10 -13 -25 -24
right_child=2 4 6 9 7 22 13 17 27 12 30 18 -14 -15 24 28 56 51 -20 54 -22 -23 46 61 -26 31 33 -29 44 45 -32 -33 -34 57 52 36 -38 -39 40 -41 50 -43 43 47 -46 -47 -48 -49 -50 -51 -52 -53 -54 -55 -56 -57 -58 -59 -60 -61 -62 -63 -64
